digraph Tree {
node [shape=box, style="filled, rounded", color="black", fontname=helvetica] ;
edge [fontname=helvetica] ;
0 [label=<thinking_mental_health-30d_None &le; 0.5<br/>gini = 0.5<br/>samples = 7771<br/>value = [3885.5, 3885.5]<br/>class = no depressive disorder>, fillcolor="#ffffff"] ;
1 [label=<physical/mental_condition_difficulty_concentrating_No &le; 0.5<br/>gini = 0.377<br/>samples = 2639<br/>value = [987.368, 2923.598]<br/>class = no depressive disorder>, fillcolor="#7cbeee"] ;
0 -> 1 [labeldistance=2.5, labelangle=45, headlabel="True"] ;
2 [label=<limited_activities_because_of_physical/mental_problems_Yes &le; 0.5<br/>gini = 0.133<br/>samples = 490<br/>value = [80.269, 1040.603]<br/>class = no depressive disorder>, fillcolor="#48a5e7"] ;
1 -> 2 ;
3 [label=<has_ever_smoked_Never smoked &le; 0.5<br/>gini = 0.233<br/>samples = 149<br/>value = [38.626, 247.763]<br/>class = no depressive disorder>, fillcolor="#58ace9"] ;
2 -> 3 ;
4 [label=<blood_cholesterol_checked_within_5y_Did not have cholesterol checked in past 5 years &le; 0.5<br/>gini = 0.119<br/>samples = 77<br/>value = [11.467, 169.062]<br/>class = no depressive disorder>, fillcolor="#46a4e7"] ;
3 -> 4 ;
5 [label=<type_of_physical_activity_Bicycling machine exercise &le; 0.5<br/>gini = 0.102<br/>samples = 74<br/>value = [9.656, 169.062]<br/>class = no depressive disorder>, fillcolor="#44a3e6"] ;
4 -> 5 ;
6 [label=<type_of_physical_activity_Snowshoeing &le; 0.5<br/>gini = 0.096<br/>samples = 73<br/>value = [9.053, 169.062]<br/>class = no depressive disorder>, fillcolor="#44a2e6"] ;
5 -> 6 ;
7 [label=<Fruit_intake_per_day_Don´t know, refused or missing values &le; 0.5<br/>gini = 0.091<br/>samples = 72<br/>value = [8.449, 169.062]<br/>class = no depressive disorder>, fillcolor="#43a2e6"] ;
6 -> 7 ;
8 [label=<other_cancer_types_Yes &le; 0.5<br/>gini = 0.085<br/>samples = 71<br/>value = [7.846, 169.062]<br/>class = no depressive disorder>, fillcolor="#42a2e6"] ;
7 -> 8 ;
9 [label=<do_they_meet_muscle_strengthening_recommendations_Don't know/Not Sure/Refused/Missing &le; 0.5<br/>gini = 0.062<br/>samples = 65<br/>value = [5.432, 163.232]<br/>class = no depressive disorder>, fillcolor="#40a0e6"] ;
8 -> 9 ;
10 [label=<currently_employed_Self-employed &le; 0.5<br/>gini = 0.045<br/>samples = 59<br/>value = [3.621, 154.487]<br/>class = no depressive disorder>, fillcolor="#3e9fe6"] ;
9 -> 10 ;
11 [label=<type_of_physical_activity_Yoga &le; 0.5<br/>gini = 0.025<br/>samples = 52<br/>value = [1.811, 142.828]<br/>class = no depressive disorder>, fillcolor="#3c9ee5"] ;
10 -> 11 ;
12 [label=<have_diabetes_No, pre-diabetes or borderline diabetes &le; 0.5<br/>gini = 0.017<br/>samples = 50<br/>value = [1.207, 139.913]<br/>class = no depressive disorder>, fillcolor="#3b9ee5"] ;
11 -> 12 ;
13 [label=<own/rent_your_home_Other arrangement &le; 0.5<br/>gini = 0.009<br/>samples = 48<br/>value = [0.604, 136.998]<br/>class = no depressive disorder>, fillcolor="#3a9de5"] ;
12 -> 13 ;
14 [label=<gini = 0.0<br/>samples = 44<br/>value = [0.0, 128.254]<br/>class = no depressive disorder>, fillcolor="#399de5"] ;
13 -> 14 ;
15 [label=<Fruit_intake_per_day_Consumed fruit one or more times per day &le; 0.5<br/>gini = 0.121<br/>samples = 4<br/>value = [0.604, 8.745]<br/>class = no depressive disorder>, fillcolor="#47a4e7"] ;
13 -> 15 ;
16 [label=<gini = 0.0<br/>samples = 1<br/>value = [0.604, 0.0]<br/>class = depressive disorder>, fillcolor="#e58139"] ;
15 -> 16 ;
17 [label=<gini = 0.0<br/>samples = 3<br/>value = [0.0, 8.745]<br/>class = no depressive disorder>, fillcolor="#399de5"] ;
15 -> 17 ;
18 [label=<COPD, emphysema_or_chronic_bronchitis_No &le; 0.5<br/>gini = 0.284<br/>samples = 2<br/>value = [0.604, 2.915]<br/>class = no depressive disorder>, fillcolor="#62b1ea"] ;
12 -> 18 ;
19 [label=<gini = 0.0<br/>samples = 1<br/>value = [0.0, 2.915]<br/>class = no depressive disorder>, fillcolor="#399de5"] ;
18 -> 19 ;
20 [label=<gini = 0.0<br/>samples = 1<br/>value = [0.604, 0.0]<br/>class = depressive disorder>, fillcolor="#e58139"] ;
18 -> 20 ;
21 [label=<last_check-up_Within past year (anytime less than 12 months ago) &le; 0.5<br/>gini = 0.284<br/>samples = 2<br/>value = [0.604, 2.915]<br/>class = no depressive disorder>, fillcolor="#62b1ea"] ;
11 -> 21 ;
22 [label=<gini = 0.0<br/>samples = 1<br/>value = [0.0, 2.915]<br/>class = no depressive disorder>, fillcolor="#399de5"] ;
21 -> 22 ;
23 [label=<gini = 0.0<br/>samples = 1<br/>value = [0.604, 0.0]<br/>class = depressive disorder>, fillcolor="#e58139"] ;
21 -> 23 ;
24 [label=<has_ever_smoked_Current smoker - now smokes every day &le; 0.5<br/>gini = 0.233<br/>samples = 7<br/>value = [1.811, 11.659]<br/>class = no depressive disorder>, fillcolor="#58ace9"] ;
10 -> 24 ;
25 [label=<gini = 0.0<br/>samples = 4<br/>value = [0.0, 11.659]<br/>class = no depressive disorder>, fillcolor="#399de5"] ;
24 -> 25 ;
26 [label=<arthritis_rheumatoid_arthritis_gout_lupus_fibromyalgia_Yes &le; 0.5<br/>gini = 0.0<br/>samples = 3<br/>value = [1.811, 0.0]<br/>class = depressive disorder>, fillcolor="#e58139"] ;
24 -> 26 ;
27 [label=<gini = 0.0<br/>samples = 2<br/>value = [1.207, 0.0]<br/>class = depressive disorder>, fillcolor="#e58139"] ;
26 -> 27 ;
28 [label=<gini = 0.0<br/>samples = 1<br/>value = [0.604, 0.0]<br/>class = depressive disorder>, fillcolor="#e58139"] ;
26 -> 28 ;
29 [label=<blood_cholesterol_checked_is_high_No &le; 0.5<br/>gini = 0.284<br/>samples = 6<br/>value = [1.811, 8.745]<br/>class = no depressive disorder>, fillcolor="#62b1ea"] ;
9 -> 29 ;
30 [label=<gini = 0.0<br/>samples = 3<br/>value = [0.0, 8.745]<br/>class = no depressive disorder>, fillcolor="#399de5"] ;
29 -> 30 ;
31 [label=<gini = -0.0<br/>samples = 3<br/>value = [1.811, 0.0]<br/>class = depressive disorder>, fillcolor="#e58139"] ;
29 -> 31 ;
32 [label=<blood_cholesterol_checked_within_5y_Had cholesterol checked in past 5 years &le; 0.5<br/>gini = 0.414<br/>samples = 6<br/>value = [2.414, 5.83]<br/>class = no depressive disorder>, fillcolor="#8bc6f0"] ;
8 -> 32 ;
33 [label=<gini = 0.0<br/>samples = 2<br/>value = [0.0, 5.83]<br/>class = no depressive disorder>, fillcolor="#399de5"] ;
32 -> 33 ;
34 [label=<gini = 0.0<br/>samples = 4<br/>value = [2.414, 0.0]<br/>class = depressive disorder>, fillcolor="#e58139"] ;
32 -> 34 ;
35 [label=<gini = -0.0<br/>samples = 1<br/>value = [0.604, 0.0]<br/>class = depressive disorder>, fillcolor="#e58139"] ;
7 -> 35 ;
36 [label=<gini = -0.0<br/>samples = 1<br/>value = [0.604, 0.0]<br/>class = depressive disorder>, fillcolor="#e58139"] ;
6 -> 36 ;
37 [label=<gini = -0.0<br/>samples = 1<br/>value = [0.604, 0.0]<br/>class = depressive disorder>, fillcolor="#e58139"] ;
5 -> 37 ;
38 [label=<gini = -0.0<br/>samples = 3<br/>value = [1.811, 0.0]<br/>class = depressive disorder>, fillcolor="#e58139"] ;
4 -> 38 ;
39 [label=<education_level_Did not graduate High School &le; 0.5<br/>gini = 0.381<br/>samples = 72<br/>value = [27.159, 78.701]<br/>class = no depressive disorder>, fillcolor="#7dbfee"] ;
3 -> 39 ;
40 [label=<own/rent_your_home_Other arrangement &le; 0.5<br/>gini = 0.311<br/>samples = 56<br/>value = [18.106, 75.786]<br/>class = no depressive disorder>, fillcolor="#68b4eb"] ;
39 -> 40 ;
41 [label=<do_they_Meet_Aerobic_Recommendations_Don't know/Not Sure/Refused/Missing &le; 0.5<br/>gini = 0.269<br/>samples = 50<br/>value = [14.485, 75.786]<br/>class = no depressive disorder>, fillcolor="#5fb0ea"] ;
40 -> 41 ;
42 [label=<named_doctor_More than one &le; 0.5<br/>gini = 0.245<br/>samples = 47<br/>value = [12.674, 75.786]<br/>class = no depressive disorder>, fillcolor="#5aade9"] ;
41 -> 42 ;
43 [label=<MARITAL_Separated &le; 0.5<br/>gini = 0.228<br/>samples = 45<br/>value = [11.467, 75.786]<br/>class = no depressive disorder>, fillcolor="#57ace9"] ;
42 -> 43 ;
44 [label=<type_of_physical_activity_Elliptical/EFX machine exercise &le; 0.5<br/>gini = 0.21<br/>samples = 43<br/>value = [10.26, 75.786]<br/>class = no depressive disorder>, fillcolor="#54aae9"] ;
43 -> 44 ;
45 [label=<Body_Mass_Don't know/Refused/Missing &le; 0.5<br/>gini = 0.2<br/>samples = 42<br/>value = [9.656, 75.786]<br/>class = no depressive disorder>, fillcolor="#52a9e8"] ;
44 -> 45 ;
46 [label=<type_of_physical_activity_Walking &le; 0.5<br/>gini = 0.191<br/>samples = 41<br/>value = [9.053, 75.786]<br/>class = no depressive disorder>, fillcolor="#51a9e8"] ;
45 -> 46 ;
47 [label=<currently_employed_Self-employed &le; 0.5<br/>gini = 0.105<br/>samples = 18<br/>value = [2.414, 40.808]<br/>class = no depressive disorder>, fillcolor="#45a3e7"] ;
46 -> 47 ;
48 [label=<income_$25,000 to less than $35,000 &le; 0.5<br/>gini = 0.081<br/>samples = 17<br/>value = [1.811, 40.808]<br/>class = no depressive disorder>, fillcolor="#42a1e6"] ;
47 -> 48 ;
49 [label=<needed_medical_but_cost_No &le; 0.5<br/>gini = 0.056<br/>samples = 16<br/>value = [1.207, 40.808]<br/>class = no depressive disorder>, fillcolor="#3fa0e6"] ;
48 -> 49 ;
50 [label=<gini = 0.17<br/>samples = 6<br/>value = [1.207, 11.659]<br/>class = no depressive disorder>, fillcolor="#4da7e8"] ;
49 -> 50 ;
51 [label=<gini = 0.0<br/>samples = 10<br/>value = [0.0, 29.149]<br/>class = no depressive disorder>, fillcolor="#399de5"] ;
49 -> 51 ;
52 [label=<gini = -0.0<br/>samples = 1<br/>value = [0.604, 0.0]<br/>class = depressive disorder>, fillcolor="#e58139"] ;
48 -> 52 ;
53 [label=<gini = -0.0<br/>samples = 1<br/>value = [0.604, 0.0]<br/>class = depressive disorder>, fillcolor="#e58139"] ;
47 -> 53 ;
54 [label=<children_None &le; 0.5<br/>gini = 0.268<br/>samples = 23<br/>value = [6.639, 34.978]<br/>class = no depressive disorder>, fillcolor="#5fb0ea"] ;
46 -> 54 ;
55 [label=<gini = 0.0<br/>samples = 4<br/>value = [2.414, 0.0]<br/>class = depressive disorder>, fillcolor="#e58139"] ;
54 -> 55 ;
56 [label=<age_Age 18 - 24 &le; 0.5<br/>gini = 0.192<br/>samples = 19<br/>value = [4.225, 34.978]<br/>class = no depressive disorder>, fillcolor="#51a9e8"] ;
54 -> 56 ;
57 [label=<do_they_meet_muscle_strengthening_recommendations_Don't know/Not Sure/Refused/Missing &le; 0.5<br/>gini = 0.146<br/>samples = 17<br/>value = [3.018, 34.978]<br/>class = no depressive disorder>, fillcolor="#4aa5e7"] ;
56 -> 57 ;
58 [label=<gini = 0.121<br/>samples = 16<br/>value = [2.414, 34.978]<br/>class = no depressive disorder>, fillcolor="#47a4e7"] ;
57 -> 58 ;
59 [label=<gini = -0.0<br/>samples = 1<br/>value = [0.604, 0.0]<br/>class = depressive disorder>, fillcolor="#e58139"] ;
57 -> 59 ;
60 [label=<gini = -0.0<br/>samples = 2<br/>value = [1.207, 0.0]<br/>class = depressive disorder>, fillcolor="#e58139"] ;
56 -> 60 ;
61 [label=<gini = -0.0<br/>samples = 1<br/>value = [0.604, 0.0]<br/>class = depressive disorder>, fillcolor="#e58139"] ;
45 -> 61 ;
62 [label=<gini = -0.0<br/>samples = 1<br/>value = [0.604, 0.0]<br/>class = depressive disorder>, fillcolor="#e58139"] ;
44 -> 62 ;
63 [label=<gini = -0.0<br/>samples = 2<br/>value = [1.207, 0.0]<br/>class = depressive disorder>, fillcolor="#e58139"] ;
43 -> 63 ;
64 [label=<gini = -0.0<br/>samples = 2<br/>value = [1.207, 0.0]<br/>class = depressive disorder>, fillcolor="#e58139"] ;
42 -> 64 ;
65 [label=<gini = -0.0<br/>samples = 3<br/>value = [1.811, 0.0]<br/>class = depressive disorder>, fillcolor="#e58139"] ;
41 -> 65 ;
66 [label=<gini = -0.0<br/>samples = 6<br/>value = [3.621, 0.0]<br/>class = depressive disorder>, fillcolor="#e58139"] ;
40 -> 66 ;
67 [label=<currently_employed_Self-employed &le; 0.5<br/>gini = 0.368<br/>samples = 16<br/>value = [9.053, 2.915]<br/>class = depressive disorder>, fillcolor="#edaa79"] ;
39 -> 67 ;
68 [label=<gini = 0.0<br/>samples = 15<br/>value = [9.053, 0.0]<br/>class = depressive disorder>, fillcolor="#e58139"] ;
67 -> 68 ;
69 [label=<gini = 0.0<br/>samples = 1<br/>value = [0.0, 2.915]<br/>class = no depressive disorder>, fillcolor="#399de5"] ;
67 -> 69 ;
70 [label=<still_have_asthma_Don't know/Not Sure &le; 0.5<br/>gini = 0.095<br/>samples = 341<br/>value = [41.643, 792.84]<br/>class = no depressive disorder>, fillcolor="#43a2e6"] ;
2 -> 70 ;
71 [label=<type_of_physical_activity_Aerobics video or class &le; 0.5<br/>gini = 0.092<br/>samples = 339<br/>value = [40.436, 792.84]<br/>class = no depressive disorder>, fillcolor="#43a2e6"] ;
70 -> 71 ;
72 [label=<type_of_physical_activity_Karate/Martial Arts &le; 0.5<br/>gini = 0.091<br/>samples = 338<br/>value = [39.833, 792.84]<br/>class = no depressive disorder>, fillcolor="#43a2e6"] ;
71 -> 72 ;
73 [label=<type_of_physical_activity_Stair climbing/Stair master &le; 0.5<br/>gini = 0.09<br/>samples = 337<br/>value = [39.229, 792.84]<br/>class = no depressive disorder>, fillcolor="#43a2e6"] ;
72 -> 73 ;
74 [label=<type_of_physical_activity_Yard work (cutting/gathering wood, trimming hedges, etc.) &le; 0.5<br/>gini = 0.089<br/>samples = 336<br/>value = [38.626, 792.84]<br/>class = no depressive disorder>, fillcolor="#43a2e6"] ;
73 -> 74 ;
75 [label=<type_of_physical_activity_Painting/papering house &le; 0.5<br/>gini = 0.087<br/>samples = 335<br/>value = [38.022, 792.84]<br/>class = no depressive disorder>, fillcolor="#42a2e6"] ;
74 -> 75 ;
76 [label=<depressive_disorder_Don't know/Not sure &le; 0.5<br/>gini = 0.086<br/>samples = 334<br/>value = [37.419, 792.84]<br/>class = no depressive disorder>, fillcolor="#42a2e6"] ;
75 -> 76 ;
77 [label=<type_of_physical_activity_Swimming in laps &le; 0.5<br/>gini = 0.085<br/>samples = 333<br/>value = [36.815, 792.84]<br/>class = no depressive disorder>, fillcolor="#42a2e6"] ;
76 -> 77 ;
78 [label=<had_skin_cancer_Yes &le; 0.5<br/>gini = 0.084<br/>samples = 332<br/>value = [36.212, 792.84]<br/>class = no depressive disorder>, fillcolor="#42a1e6"] ;
77 -> 78 ;
79 [label=<currently_employed_Unable to work &le; 0.5<br/>gini = 0.074<br/>samples = 309<br/>value = [30.176, 754.947]<br/>class = no depressive disorder>, fillcolor="#41a1e6"] ;
78 -> 79 ;
80 [label=<have_diabetes_No, pre-diabetes or borderline diabetes &le; 0.5<br/>gini = 0.111<br/>samples = 151<br/>value = [21.123, 338.123]<br/>class = no depressive disorder>, fillcolor="#45a3e7"] ;
79 -> 80 ;
81 [label=<had_a_stroke_Don't know/Not sure &le; 0.5<br/>gini = 0.105<br/>samples = 149<br/>value = [19.916, 338.123]<br/>class = no depressive disorder>, fillcolor="#45a3e7"] ;
80 -> 81 ;
82 [label=<gini = 0.102<br/>samples = 148<br/>value = [19.313, 338.123]<br/>class = no depressive disorder>, fillcolor="#44a3e6"] ;
81 -> 82 ;
83 [label=<gini = -0.0<br/>samples = 1<br/>value = [0.604, 0.0]<br/>class = depressive disorder>, fillcolor="#e58139"] ;
81 -> 83 ;
84 [label=<gini = -0.0<br/>samples = 2<br/>value = [1.207, 0.0]<br/>class = depressive disorder>, fillcolor="#e58139"] ;
80 -> 84 ;
85 [label=<age_of_diabetes_onset_Don't know/Not sure &le; 0.5<br/>gini = 0.042<br/>samples = 158<br/>value = [9.053, 416.824]<br/>class = no depressive disorder>, fillcolor="#3d9fe6"] ;
79 -> 85 ;
86 [label=<blood_cholesterol_checked_within_5y_Don't know/Not Sure Or Refused/Missing &le; 0.5<br/>gini = 0.039<br/>samples = 157<br/>value = [8.449, 416.824]<br/>class = no depressive disorder>, fillcolor="#3d9fe6"] ;
85 -> 86 ;
87 [label=<gini = 0.034<br/>samples = 153<br/>value = [7.242, 410.994]<br/>class = no depressive disorder>, fillcolor="#3c9fe5"] ;
86 -> 87 ;
88 [label=<gini = 0.284<br/>samples = 4<br/>value = [1.207, 5.83]<br/>class = no depressive disorder>, fillcolor="#62b1ea"] ;
86 -> 88 ;
89 [label=<gini = -0.0<br/>samples = 1<br/>value = [0.604, 0.0]<br/>class = depressive disorder>, fillcolor="#e58139"] ;
85 -> 89 ;
90 [label=<mental/physical_health_impact-30d_None &le; 0.5<br/>gini = 0.237<br/>samples = 23<br/>value = [6.035, 37.893]<br/>class = no depressive disorder>, fillcolor="#59ade9"] ;
78 -> 90 ;
91 [label=<MARITAL_Widowed &le; 0.5<br/>gini = 0.159<br/>samples = 19<br/>value = [3.621, 37.893]<br/>class = no depressive disorder>, fillcolor="#4ca6e7"] ;
90 -> 91 ;
92 [label=<age_Age 45 - 54 &le; 0.5<br/>gini = 0.087<br/>samples = 16<br/>value = [1.811, 37.893]<br/>class = no depressive disorder>, fillcolor="#42a2e6"] ;
91 -> 92 ;
93 [label=<gini = 0.031<br/>samples = 14<br/>value = [0.604, 37.893]<br/>class = no depressive disorder>, fillcolor="#3c9fe5"] ;
92 -> 93 ;
94 [label=<gini = -0.0<br/>samples = 2<br/>value = [1.207, 0.0]<br/>class = depressive disorder>, fillcolor="#e58139"] ;
92 -> 94 ;
95 [label=<gini = -0.0<br/>samples = 3<br/>value = [1.811, 0.0]<br/>class = depressive disorder>, fillcolor="#e58139"] ;
91 -> 95 ;
96 [label=<gini = -0.0<br/>samples = 4<br/>value = [2.414, 0.0]<br/>class = depressive disorder>, fillcolor="#e58139"] ;
90 -> 96 ;
97 [label=<gini = 0.0<br/>samples = 1<br/>value = [0.604, 0.0]<br/>class = depressive disorder>, fillcolor="#e58139"] ;
77 -> 97 ;
98 [label=<gini = 0.0<br/>samples = 1<br/>value = [0.604, 0.0]<br/>class = depressive disorder>, fillcolor="#e58139"] ;
76 -> 98 ;
99 [label=<gini = 0.0<br/>samples = 1<br/>value = [0.604, 0.0]<br/>class = depressive disorder>, fillcolor="#e58139"] ;
75 -> 99 ;
100 [label=<gini = 0.0<br/>samples = 1<br/>value = [0.604, 0.0]<br/>class = depressive disorder>, fillcolor="#e58139"] ;
74 -> 100 ;
101 [label=<gini = 0.0<br/>samples = 1<br/>value = [0.604, 0.0]<br/>class = depressive disorder>, fillcolor="#e58139"] ;
73 -> 101 ;
102 [label=<gini = 0.0<br/>samples = 1<br/>value = [0.604, 0.0]<br/>class = depressive disorder>, fillcolor="#e58139"] ;
72 -> 102 ;
103 [label=<gini = 0.0<br/>samples = 1<br/>value = [0.604, 0.0]<br/>class = depressive disorder>, fillcolor="#e58139"] ;
71 -> 103 ;
104 [label=<currently_employed_A homemaker &le; 0.5<br/>gini = 0.0<br/>samples = 2<br/>value = [1.207, 0.0]<br/>class = depressive disorder>, fillcolor="#e58139"] ;
70 -> 104 ;
105 [label=<gini = 0.0<br/>samples = 1<br/>value = [0.604, 0.0]<br/>class = depressive disorder>, fillcolor="#e58139"] ;
104 -> 105 ;
106 [label=<gini = 0.0<br/>samples = 1<br/>value = [0.604, 0.0]<br/>class = depressive disorder>, fillcolor="#e58139"] ;
104 -> 106 ;
107 [label=<mental/physical_health_impact-30d_None &le; 0.5<br/>gini = 0.439<br/>samples = 2149<br/>value = [907.099, 1882.995]<br/>class = no depressive disorder>, fillcolor="#98ccf2"] ;
1 -> 107 ;
108 [label=<arthritis_rheumatoid_arthritis_gout_lupus_fibromyalgia_Yes &le; 0.5<br/>gini = 0.345<br/>samples = 795<br/>value = [277.622, 976.476]<br/>class = no depressive disorder>, fillcolor="#71b9ec"] ;
107 -> 108 ;
109 [label=<named_doctor_No &le; 0.5<br/>gini = 0.406<br/>samples = 483<br/>value = [191.318, 483.866]<br/>class = no depressive disorder>, fillcolor="#87c4ef"] ;
108 -> 109 ;
110 [label=<do_they_Meet_Aerobic_Recommendations_Did Not Meet Aerobic Recommendations &le; 0.5<br/>gini = 0.379<br/>samples = 404<br/>value = [151.485, 445.973]<br/>class = no depressive disorder>, fillcolor="#7cbeee"] ;
109 -> 110 ;
111 [label=<Vegetable_intake_per_day_Don´t know, refused or missing values &le; 0.5<br/>gini = 0.443<br/>samples = 200<br/>value = [85.097, 171.976]<br/>class = no depressive disorder>, fillcolor="#9bcdf2"] ;
110 -> 111 ;
112 [label=<type_of_physical_activity_Dancing-ballet, ballroom, Latin, hip hop, etc &le; 0.5<br/>gini = 0.424<br/>samples = 178<br/>value = [73.027, 166.147]<br/>class = no depressive disorder>, fillcolor="#90c8f0"] ;
111 -> 112 ;
113 [label=<type_of_physical_activity_Bicycling &le; 0.5<br/>gini = 0.416<br/>samples = 172<br/>value = [69.405, 166.147]<br/>class = no depressive disorder>, fillcolor="#8cc6f0"] ;
112 -> 113 ;
114 [label=<type_of_physical_activity_Calisthenics &le; 0.5<br/>gini = 0.408<br/>samples = 167<br/>value = [66.388, 166.147]<br/>class = no depressive disorder>, fillcolor="#88c4ef"] ;
113 -> 114 ;
115 [label=<mental/physical_health_impact-30d_Don't know/Not sure &le; 0.5<br/>gini = 0.401<br/>samples = 163<br/>value = [63.974, 166.147]<br/>class = no depressive disorder>, fillcolor="#85c3ef"] ;
114 -> 115 ;
116 [label=<MARITAL_Separated &le; 0.5<br/>gini = 0.396<br/>samples = 160<br/>value = [62.163, 166.147]<br/>class = no depressive disorder>, fillcolor="#83c2ef"] ;
115 -> 116 ;
117 [label=<age_Age 65 or older &le; 0.5<br/>gini = 0.416<br/>samples = 148<br/>value = [59.749, 142.828]<br/>class = no depressive disorder>, fillcolor="#8cc6f0"] ;
116 -> 117 ;
118 [label=<own/rent_your_home_Own &le; 0.5<br/>gini = 0.44<br/>samples = 124<br/>value = [52.507, 107.85]<br/>class = no depressive disorder>, fillcolor="#99cdf2"] ;
117 -> 118 ;
119 [label=<Fruit_intake_per_day_Consumed fruit one or more times per day &le; 0.5<br/>gini = 0.377<br/>samples = 63<br/>value = [23.538, 69.956]<br/>class = no depressive disorder>, fillcolor="#7cbeee"] ;
118 -> 119 ;
120 [label=<gini = 0.491<br/>samples = 28<br/>value = [13.278, 17.489]<br/>class = no depressive disorder>, fillcolor="#cfe7f9"] ;
119 -> 120 ;
121 [label=<gini = 0.274<br/>samples = 35<br/>value = [10.26, 52.467]<br/>class = no depressive disorder>, fillcolor="#60b0ea"] ;
119 -> 121 ;
122 [label=<Fruit_intake_per_day_Consumed fruit one or more times per day &le; 0.5<br/>gini = 0.491<br/>samples = 61<br/>value = [28.969, 37.893]<br/>class = no depressive disorder>, fillcolor="#d0e8f9"] ;
118 -> 122 ;
123 [label=<gini = 0.345<br/>samples = 19<br/>value = [6.639, 23.319]<br/>class = no depressive disorder>, fillcolor="#71b9ec"] ;
122 -> 123 ;
124 [label=<gini = 0.478<br/>samples = 42<br/>value = [22.33, 14.574]<br/>class = depressive disorder>, fillcolor="#f6d3ba"] ;
122 -> 124 ;
125 [label=<last_check-up_Within past year (anytime less than 12 months ago) &le; 0.5<br/>gini = 0.284<br/>samples = 24<br/>value = [7.242, 34.978]<br/>class = no depressive disorder>, fillcolor="#62b1ea"] ;
117 -> 125 ;
126 [label=<gini = 0.0<br/>samples = 2<br/>value = [1.207, 0.0]<br/>class = depressive disorder>, fillcolor="#e58139"] ;
125 -> 126 ;
127 [label=<MARITAL_Never married &le; 0.5<br/>gini = 0.251<br/>samples = 22<br/>value = [6.035, 34.978]<br/>class = no depressive disorder>, fillcolor="#5baee9"] ;
125 -> 127 ;
128 [label=<gini = 0.213<br/>samples = 20<br/>value = [4.828, 34.978]<br/>class = no depressive disorder>, fillcolor="#54abe9"] ;
127 -> 128 ;
129 [label=<gini = -0.0<br/>samples = 2<br/>value = [1.207, 0.0]<br/>class = depressive disorder>, fillcolor="#e58139"] ;
127 -> 129 ;
130 [label=<Health_Care_Access_18-64_Have health care coverage &le; 0.5<br/>gini = 0.17<br/>samples = 12<br/>value = [2.414, 23.319]<br/>class = no depressive disorder>, fillcolor="#4da7e8"] ;
116 -> 130 ;
131 [label=<gini = 0.0<br/>samples = 2<br/>value = [1.207, 0.0]<br/>class = depressive disorder>, fillcolor="#e58139"] ;
130 -> 131 ;
132 [label=<general_health_Fair &le; 0.5<br/>gini = 0.094<br/>samples = 10<br/>value = [1.207, 23.319]<br/>class = no depressive disorder>, fillcolor="#43a2e6"] ;
130 -> 132 ;
133 [label=<education_level_Graduated High School &le; 0.5<br/>gini = 0.049<br/>samples = 9<br/>value = [0.604, 23.319]<br/>class = no depressive disorder>, fillcolor="#3ea0e6"] ;
132 -> 133 ;
134 [label=<gini = 0.0<br/>samples = 7<br/>value = [0.0, 20.404]<br/>class = no depressive disorder>, fillcolor="#399de5"] ;
133 -> 134 ;
135 [label=<gini = 0.284<br/>samples = 2<br/>value = [0.604, 2.915]<br/>class = no depressive disorder>, fillcolor="#62b1ea"] ;
133 -> 135 ;
136 [label=<gini = 0.0<br/>samples = 1<br/>value = [0.604, 0.0]<br/>class = depressive disorder>, fillcolor="#e58139"] ;
132 -> 136 ;
137 [label=<gini = 0.0<br/>samples = 3<br/>value = [1.811, 0.0]<br/>class = depressive disorder>, fillcolor="#e58139"] ;
115 -> 137 ;
138 [label=<gini = 0.0<br/>samples = 4<br/>value = [2.414, 0.0]<br/>class = depressive disorder>, fillcolor="#e58139"] ;
114 -> 138 ;
139 [label=<gini = 0.0<br/>samples = 5<br/>value = [3.018, 0.0]<br/>class = depressive disorder>, fillcolor="#e58139"] ;
113 -> 139 ;
140 [label=<gini = 0.0<br/>samples = 6<br/>value = [3.621, 0.0]<br/>class = depressive disorder>, fillcolor="#e58139"] ;
112 -> 140 ;
141 [label=<last_check-up_Within past 2 years (1 year but less than 2 years ago) &le; 0.5<br/>gini = 0.439<br/>samples = 22<br/>value = [12.071, 5.83]<br/>class = depressive disorder>, fillcolor="#f2be99"] ;
111 -> 141 ;
142 [label=<gini = 0.0<br/>samples = 20<br/>value = [12.071, 0.0]<br/>class = depressive disorder>, fillcolor="#e58139"] ;
141 -> 142 ;
143 [label=<gini = 0.0<br/>samples = 2<br/>value = [0.0, 5.83]<br/>class = no depressive disorder>, fillcolor="#399de5"] ;
141 -> 143 ;
144 [label=<have_diabetes_No, pre-diabetes or borderline diabetes &le; 0.5<br/>gini = 0.314<br/>samples = 204<br/>value = [66.388, 273.996]<br/>class = no depressive disorder>, fillcolor="#69b5eb"] ;
110 -> 144 ;
145 [label=<Vegetable_intake_per_day_Consumed vegetables one or more times per day &le; 0.5<br/>gini = 0.309<br/>samples = 201<br/>value = [64.577, 273.996]<br/>class = no depressive disorder>, fillcolor="#68b4eb"] ;
144 -> 145 ;
146 [label=<age_Age 45 - 54 &le; 0.5<br/>gini = 0.206<br/>samples = 59<br/>value = [13.881, 104.935]<br/>class = no depressive disorder>, fillcolor="#53aae8"] ;
145 -> 146 ;
147 [label=<type_of_physical_activity_Other______ &le; 0.5<br/>gini = 0.166<br/>samples = 52<br/>value = [10.26, 102.02]<br/>class = no depressive disorder>, fillcolor="#4da7e8"] ;
146 -> 147 ;
148 [label=<type_of_physical_activity_Running &le; 0.5<br/>gini = 0.158<br/>samples = 51<br/>value = [9.656, 102.02]<br/>class = no depressive disorder>, fillcolor="#4ca6e7"] ;
147 -> 148 ;
149 [label=<type_of_physical_activity_Aerobics video or class &le; 0.5<br/>gini = 0.15<br/>samples = 50<br/>value = [9.053, 102.02]<br/>class = no depressive disorder>, fillcolor="#4ba6e7"] ;
148 -> 149 ;
150 [label=<are you blind_No &le; 0.5<br/>gini = 0.141<br/>samples = 49<br/>value = [8.449, 102.02]<br/>class = no depressive disorder>, fillcolor="#49a5e7"] ;
149 -> 150 ;
151 [label=<age_Age 55 - 64 &le; 0.5<br/>gini = 0.414<br/>samples = 6<br/>value = [2.414, 5.83]<br/>class = no depressive disorder>, fillcolor="#8bc6f0"] ;
150 -> 151 ;
152 [label=<needed_medical_but_cost_Yes &le; 0.5<br/>gini = 0.17<br/>samples = 3<br/>value = [0.604, 5.83]<br/>class = no depressive disorder>, fillcolor="#4da7e8"] ;
151 -> 152 ;
153 [label=<gini = 0.0<br/>samples = 1<br/>value = [0.604, 0.0]<br/>class = depressive disorder>, fillcolor="#e58139"] ;
152 -> 153 ;
154 [label=<gini = 0.0<br/>samples = 2<br/>value = [0.0, 5.83]<br/>class = no depressive disorder>, fillcolor="#399de5"] ;
152 -> 154 ;
155 [label=<gini = -0.0<br/>samples = 3<br/>value = [1.811, 0.0]<br/>class = depressive disorder>, fillcolor="#e58139"] ;
151 -> 155 ;
156 [label=<last_check-up_Within past 2 years (1 year but less than 2 years ago) &le; 0.5<br/>gini = 0.111<br/>samples = 43<br/>value = [6.035, 96.19]<br/>class = no depressive disorder>, fillcolor="#45a3e7"] ;
150 -> 156 ;
157 [label=<MARITAL_Married &le; 0.5<br/>gini = 0.085<br/>samples = 38<br/>value = [4.225, 90.36]<br/>class = no depressive disorder>, fillcolor="#42a2e6"] ;
156 -> 157 ;
158 [label=<gini = 0.051<br/>samples = 26<br/>value = [1.811, 67.042]<br/>class = no depressive disorder>, fillcolor="#3ea0e6"] ;
157 -> 158 ;
159 [label=<gini = 0.17<br/>samples = 12<br/>value = [2.414, 23.319]<br/>class = no depressive disorder>, fillcolor="#4da7e8"] ;
157 -> 159 ;
160 [label=<education_level_Graduated from College or Technical School &le; 0.5<br/>gini = 0.362<br/>samples = 5<br/>value = [1.811, 5.83]<br/>class = no depressive disorder>, fillcolor="#76bbed"] ;
156 -> 160 ;
161 [label=<gini = 0.0<br/>samples = 2<br/>value = [0.0, 5.83]<br/>class = no depressive disorder>, fillcolor="#399de5"] ;
160 -> 161 ;
162 [label=<gini = 0.0<br/>samples = 3<br/>value = [1.811, 0.0]<br/>class = depressive disorder>, fillcolor="#e58139"] ;
160 -> 162 ;
163 [label=<gini = -0.0<br/>samples = 1<br/>value = [0.604, 0.0]<br/>class = depressive disorder>, fillcolor="#e58139"] ;
149 -> 163 ;
164 [label=<gini = -0.0<br/>samples = 1<br/>value = [0.604, 0.0]<br/>class = depressive disorder>, fillcolor="#e58139"] ;
148 -> 164 ;
165 [label=<gini = -0.0<br/>samples = 1<br/>value = [0.604, 0.0]<br/>class = depressive disorder>, fillcolor="#e58139"] ;
147 -> 165 ;
166 [label=<have_diabetes_Yes &le; 0.5<br/>gini = 0.494<br/>samples = 7<br/>value = [3.621, 2.915]<br/>class = depressive disorder>, fillcolor="#fae6d8"] ;
146 -> 166 ;
167 [label=<mental/physical_health_impact-30d_Number of days &le; 0.5<br/>gini = 0.0<br/>samples = 6<br/>value = [3.621, 0.0]<br/>class = depressive disorder>, fillcolor="#e58139"] ;
166 -> 167 ;
168 [label=<gini = 0.0<br/>samples = 1<br/>value = [0.604, 0.0]<br/>class = depressive disorder>, fillcolor="#e58139"] ;
167 -> 168 ;
169 [label=<gini = 0.0<br/>samples = 5<br/>value = [3.018, 0.0]<br/>class = depressive disorder>, fillcolor="#e58139"] ;
167 -> 169 ;
170 [label=<gini = 0.0<br/>samples = 1<br/>value = [0.0, 2.915]<br/>class = no depressive disorder>, fillcolor="#399de5"] ;
166 -> 170 ;
171 [label=<limited_activities_because_of_physical/mental_problems_No &le; 0.5<br/>gini = 0.355<br/>samples = 142<br/>value = [50.696, 169.062]<br/>class = no depressive disorder>, fillcolor="#74baed"] ;
145 -> 171 ;
172 [label=<currently_employed_Out of work for less than 1 year &le; 0.5<br/>gini = 0.239<br/>samples = 48<br/>value = [12.674, 78.701]<br/>class = no depressive disorder>, fillcolor="#59ade9"] ;
171 -> 172 ;
173 [label=<income_$35,000 to less than $50,000 &le; 0.5<br/>gini = 0.222<br/>samples = 46<br/>value = [11.467, 78.701]<br/>class = no depressive disorder>, fillcolor="#56abe9"] ;
172 -> 173 ;
174 [label=<do_they_meet_muscle_strengthening_recommendations_Don't know/Not Sure/Refused/Missing &le; 0.5<br/>gini = 0.18<br/>samples = 40<br/>value = [8.449, 75.786]<br/>class = no depressive disorder>, fillcolor="#4fa8e8"] ;
173 -> 174 ;
175 [label=<have_had_heart_attack/heart_disease_Not asked or Missing &le; 0.5<br/>gini = 0.17<br/>samples = 39<br/>value = [7.846, 75.786]<br/>class = no depressive disorder>, fillcolor="#4da7e8"] ;
174 -> 175 ;
176 [label=<Fruit_intake_per_day_Consumed fruit one or more times per day &le; 0.5<br/>gini = 0.159<br/>samples = 38<br/>value = [7.242, 75.786]<br/>class = no depressive disorder>, fillcolor="#4ca6e7"] ;
175 -> 176 ;
177 [label=<do_they_meet_muscle_strengthening_recommendations_Meet muscle strengthening recommendations &le; 0.5<br/>gini = 0.033<br/>samples = 13<br/>value = [0.604, 34.978]<br/>class = no depressive disorder>, fillcolor="#3c9fe5"] ;
176 -> 177 ;
178 [label=<gini = 0.0<br/>samples = 12<br/>value = [0.0, 34.978]<br/>class = no depressive disorder>, fillcolor="#399de5"] ;
177 -> 178 ;
179 [label=<gini = -0.0<br/>samples = 1<br/>value = [0.604, 0.0]<br/>class = depressive disorder>, fillcolor="#e58139"] ;
177 -> 179 ;
180 [label=<income_Don't know/Not sure/Missing &le; 0.5<br/>gini = 0.241<br/>samples = 25<br/>value = [6.639, 40.808]<br/>class = no depressive disorder>, fillcolor="#59ade9"] ;
176 -> 180 ;
181 [label=<gini = 0.224<br/>samples = 24<br/>value = [6.035, 40.808]<br/>class = no depressive disorder>, fillcolor="#56abe9"] ;
180 -> 181 ;
182 [label=<gini = -0.0<br/>samples = 1<br/>value = [0.604, 0.0]<br/>class = depressive disorder>, fillcolor="#e58139"] ;
180 -> 182 ;
183 [label=<gini = -0.0<br/>samples = 1<br/>value = [0.604, 0.0]<br/>class = depressive disorder>, fillcolor="#e58139"] ;
175 -> 183 ;
184 [label=<gini = -0.0<br/>samples = 1<br/>value = [0.604, 0.0]<br/>class = depressive disorder>, fillcolor="#e58139"] ;
174 -> 184 ;
185 [label=<Fruit_intake_per_day_Consumed fruit less than one time per day &le; 0.5<br/>gini = 0.5<br/>samples = 6<br/>value = [3.018, 2.915]<br/>class = depressive disorder>, fillcolor="#fefbf8"] ;
173 -> 185 ;
186 [label=<other_cancer_types_Yes &le; 0.5<br/>gini = 0.0<br/>samples = 5<br/>value = [3.018, 0.0]<br/>class = depressive disorder>, fillcolor="#e58139"] ;
185 -> 186 ;
187 [label=<gini = 0.0<br/>samples = 4<br/>value = [2.414, 0.0]<br/>class = depressive disorder>, fillcolor="#e58139"] ;
186 -> 187 ;
188 [label=<gini = 0.0<br/>samples = 1<br/>value = [0.604, 0.0]<br/>class = depressive disorder>, fillcolor="#e58139"] ;
186 -> 188 ;
189 [label=<gini = 0.0<br/>samples = 1<br/>value = [0.0, 2.915]<br/>class = no depressive disorder>, fillcolor="#399de5"] ;
185 -> 189 ;
190 [label=<gini = -0.0<br/>samples = 2<br/>value = [1.207, 0.0]<br/>class = depressive disorder>, fillcolor="#e58139"] ;
172 -> 190 ;
191 [label=<education_level_Did not graduate High School &le; 0.5<br/>gini = 0.417<br/>samples = 94<br/>value = [38.022, 90.36]<br/>class = no depressive disorder>, fillcolor="#8cc6f0"] ;
171 -> 191 ;
192 [label=<COPD, emphysema_or_chronic_bronchitis_No &le; 0.5<br/>gini = 0.393<br/>samples = 86<br/>value = [33.194, 90.36]<br/>class = no depressive disorder>, fillcolor="#82c1ef"] ;
191 -> 192 ;
193 [label=<gini = 0.0<br/>samples = 4<br/>value = [2.414, 0.0]<br/>class = depressive disorder>, fillcolor="#e58139"] ;
192 -> 193 ;
194 [label=<other_cancer_types_No &le; 0.5<br/>gini = 0.379<br/>samples = 82<br/>value = [30.78, 90.36]<br/>class = no depressive disorder>, fillcolor="#7cbeee"] ;
192 -> 194 ;
195 [label=<gini = 0.0<br/>samples = 3<br/>value = [1.811, 0.0]<br/>class = depressive disorder>, fillcolor="#e58139"] ;
194 -> 195 ;
196 [label=<type_of_physical_activity_Jogging &le; 0.5<br/>gini = 0.368<br/>samples = 79<br/>value = [28.969, 90.36]<br/>class = no depressive disorder>, fillcolor="#78bced"] ;
194 -> 196 ;
197 [label=<currently_employed_Out of work for 1 year or more &le; 0.5<br/>gini = 0.36<br/>samples = 77<br/>value = [27.762, 90.36]<br/>class = no depressive disorder>, fillcolor="#76bbed"] ;
196 -> 197 ;
198 [label=<have_diabetes_No &le; 0.5<br/>gini = 0.351<br/>samples = 75<br/>value = [26.555, 90.36]<br/>class = no depressive disorder>, fillcolor="#73baed"] ;
197 -> 198 ;
199 [label=<gini = 0.121<br/>samples = 8<br/>value = [1.207, 17.489]<br/>class = no depressive disorder>, fillcolor="#47a4e7"] ;
198 -> 199 ;
200 [label=<gini = 0.383<br/>samples = 67<br/>value = [25.348, 72.871]<br/>class = no depressive disorder>, fillcolor="#7ebfee"] ;
198 -> 200 ;
201 [label=<gini = -0.0<br/>samples = 2<br/>value = [1.207, 0.0]<br/>class = depressive disorder>, fillcolor="#e58139"] ;
197 -> 201 ;
202 [label=<gini = -0.0<br/>samples = 2<br/>value = [1.207, 0.0]<br/>class = depressive disorder>, fillcolor="#e58139"] ;
196 -> 202 ;
203 [label=<gini = 0.0<br/>samples = 8<br/>value = [4.828, 0.0]<br/>class = depressive disorder>, fillcolor="#e58139"] ;
191 -> 203 ;
204 [label=<gini = 0.0<br/>samples = 3<br/>value = [1.811, 0.0]<br/>class = depressive disorder>, fillcolor="#e58139"] ;
144 -> 204 ;
205 [label=<blood_cholesterol_checked_within_5y_Have never had cholesterol checked &le; 0.5<br/>gini = 0.5<br/>samples = 79<br/>value = [39.833, 37.893]<br/>class = depressive disorder>, fillcolor="#fef9f5"] ;
109 -> 205 ;
206 [label=<general_health_Excellent &le; 0.5<br/>gini = 0.466<br/>samples = 46<br/>value = [20.52, 34.978]<br/>class = no depressive disorder>, fillcolor="#add6f4"] ;
205 -> 206 ;
207 [label=<age_Age 35 - 44 &le; 0.5<br/>gini = 0.428<br/>samples = 38<br/>value = [15.692, 34.978]<br/>class = no depressive disorder>, fillcolor="#92c9f1"] ;
206 -> 207 ;
208 [label=<do_they_meet_muscle_strengthening_recommendations_Meet muscle strengthening recommendations &le; 0.5<br/>gini = 0.39<br/>samples = 33<br/>value = [12.674, 34.978]<br/>class = no depressive disorder>, fillcolor="#81c1ee"] ;
207 -> 208 ;
209 [label=<needed_medical_but_cost_Yes &le; 0.5<br/>gini = 0.478<br/>samples = 25<br/>value = [11.467, 17.489]<br/>class = no depressive disorder>, fillcolor="#bbddf6"] ;
208 -> 209 ;
210 [label=<do_they_Meet_Aerobic_Recommendations_Did Not Meet Aerobic Recommendations &le; 0.5<br/>gini = 0.414<br/>samples = 18<br/>value = [7.242, 17.489]<br/>class = no depressive disorder>, fillcolor="#8bc6f0"] ;
209 -> 210 ;
211 [label=<gini = 0.0<br/>samples = 4<br/>value = [2.414, 0.0]<br/>class = depressive disorder>, fillcolor="#e58139"] ;
210 -> 211 ;
212 [label=<last_check-up_Within past year (anytime less than 12 months ago) &le; 0.5<br/>gini = 0.339<br/>samples = 14<br/>value = [4.828, 17.489]<br/>class = no depressive disorder>, fillcolor="#70b8ec"] ;
210 -> 212 ;
213 [label=<is_a_heavy_drinker_No &le; 0.5<br/>gini = 0.141<br/>samples = 7<br/>value = [1.207, 14.574]<br/>class = no depressive disorder>, fillcolor="#49a5e7"] ;
212 -> 213 ;
214 [label=<gini = 0.0<br/>samples = 1<br/>value = [0.604, 0.0]<br/>class = depressive disorder>, fillcolor="#e58139"] ;
213 -> 214 ;
215 [label=<own/rent_your_home_Other arrangement &le; 0.5<br/>gini = 0.076<br/>samples = 6<br/>value = [0.604, 14.574]<br/>class = no depressive disorder>, fillcolor="#41a1e6"] ;
213 -> 215 ;
216 [label=<gini = 0.0<br/>samples = 5<br/>value = [0.0, 14.574]<br/>class = no depressive disorder>, fillcolor="#399de5"] ;
215 -> 216 ;
217 [label=<gini = 0.0<br/>samples = 1<br/>value = [0.604, 0.0]<br/>class = depressive disorder>, fillcolor="#e58139"] ;
215 -> 217 ;
218 [label=<COPD, emphysema_or_chronic_bronchitis_No &le; 0.5<br/>gini = 0.494<br/>samples = 7<br/>value = [3.621, 2.915]<br/>class = depressive disorder>, fillcolor="#fae6d8"] ;
212 -> 218 ;
219 [label=<gini = 0.0<br/>samples = 1<br/>value = [0.0, 2.915]<br/>class = no depressive disorder>, fillcolor="#399de5"] ;
218 -> 219 ;
220 [label=<Health_Care_Access_18-64_Do not have health care coverage &le; 0.5<br/>gini = 0.0<br/>samples = 6<br/>value = [3.621, 0.0]<br/>class = depressive disorder>, fillcolor="#e58139"] ;
218 -> 220 ;
221 [label=<gini = 0.0<br/>samples = 4<br/>value = [2.414, 0.0]<br/>class = depressive disorder>, fillcolor="#e58139"] ;
220 -> 221 ;
222 [label=<gini = 0.0<br/>samples = 2<br/>value = [1.207, 0.0]<br/>class = depressive disorder>, fillcolor="#e58139"] ;
220 -> 222 ;
223 [label=<gini = 0.0<br/>samples = 7<br/>value = [4.225, 0.0]<br/>class = depressive disorder>, fillcolor="#e58139"] ;
209 -> 223 ;
224 [label=<serious_difficulty_walking_or_climbing_stairs_No &le; 0.5<br/>gini = 0.121<br/>samples = 8<br/>value = [1.207, 17.489]<br/>class = no depressive disorder>, fillcolor="#47a4e7"] ;
208 -> 224 ;
225 [label=<gini = 0.0<br/>samples = 1<br/>value = [0.604, 0.0]<br/>class = depressive disorder>, fillcolor="#e58139"] ;
224 -> 225 ;
226 [label=<Fruit_intake_per_day_Consumed fruit one or more times per day &le; 0.5<br/>gini = 0.064<br/>samples = 7<br/>value = [0.604, 17.489]<br/>class = no depressive disorder>, fillcolor="#40a0e6"] ;
224 -> 226 ;
227 [label=<blood_cholesterol_checked_is_high_No &le; 0.5<br/>gini = 0.284<br/>samples = 2<br/>value = [0.604, 2.915]<br/>class = no depressive disorder>, fillcolor="#62b1ea"] ;
226 -> 227 ;
228 [label=<gini = 0.0<br/>samples = 1<br/>value = [0.0, 2.915]<br/>class = no depressive disorder>, fillcolor="#399de5"] ;
227 -> 228 ;
229 [label=<gini = 0.0<br/>samples = 1<br/>value = [0.604, 0.0]<br/>class = depressive disorder>, fillcolor="#e58139"] ;
227 -> 229 ;
230 [label=<gini = 0.0<br/>samples = 5<br/>value = [0.0, 14.574]<br/>class = no depressive disorder>, fillcolor="#399de5"] ;
226 -> 230 ;
231 [label=<gini = -0.0<br/>samples = 5<br/>value = [3.018, 0.0]<br/>class = depressive disorder>, fillcolor="#e58139"] ;
207 -> 231 ;
232 [label=<gini = -0.0<br/>samples = 8<br/>value = [4.828, 0.0]<br/>class = depressive disorder>, fillcolor="#e58139"] ;
206 -> 232 ;
233 [label=<education_level_Don't know/Not sure/Missing &le; 0.5<br/>gini = 0.228<br/>samples = 33<br/>value = [19.313, 2.915]<br/>class = depressive disorder>, fillcolor="#e99457"] ;
205 -> 233 ;
234 [label=<gini = 0.0<br/>samples = 32<br/>value = [19.313, 0.0]<br/>class = depressive disorder>, fillcolor="#e58139"] ;
233 -> 234 ;
235 [label=<gini = 0.0<br/>samples = 1<br/>value = [0.0, 2.915]<br/>class = no depressive disorder>, fillcolor="#399de5"] ;
233 -> 235 ;
236 [label=<had_asthma_No &le; 0.5<br/>gini = 0.254<br/>samples = 312<br/>value = [86.304, 492.61]<br/>class = no depressive disorder>, fillcolor="#5caeea"] ;
108 -> 236 ;
237 [label=<have_diabetes_No, pre-diabetes or borderline diabetes &le; 0.5<br/>gini = 0.152<br/>samples = 89<br/>value = [16.295, 180.721]<br/>class = no depressive disorder>, fillcolor="#4ba6e7"] ;
236 -> 237 ;
238 [label=<income_Don't know/Not sure/Missing &le; 0.5<br/>gini = 0.142<br/>samples = 87<br/>value = [15.088, 180.721]<br/>class = no depressive disorder>, fillcolor="#4aa5e7"] ;
237 -> 238 ;
239 [label=<had_a_stroke_Don't know/Not sure &le; 0.5<br/>gini = 0.117<br/>samples = 78<br/>value = [11.467, 171.976]<br/>class = no depressive disorder>, fillcolor="#46a4e7"] ;
238 -> 239 ;
240 [label=<type_of_physical_activity_Canoeing/rowing in competition &le; 0.5<br/>gini = 0.112<br/>samples = 77<br/>value = [10.863, 171.976]<br/>class = no depressive disorder>, fillcolor="#46a3e7"] ;
239 -> 240 ;
241 [label=<blood_cholesterol_checked_within_5y_Did not have cholesterol checked in past 5 years &le; 0.5<br/>gini = 0.106<br/>samples = 76<br/>value = [10.26, 171.976]<br/>class = no depressive disorder>, fillcolor="#45a3e7"] ;
240 -> 241 ;
242 [label=<MARITAL_Married &le; 0.5<br/>gini = 0.101<br/>samples = 75<br/>value = [9.656, 171.976]<br/>class = no depressive disorder>, fillcolor="#44a3e6"] ;
241 -> 242 ;
243 [label=<income_$15,000 to less than $25,000 &le; 0.5<br/>gini = 0.066<br/>samples = 55<br/>value = [4.828, 136.998]<br/>class = no depressive disorder>, fillcolor="#40a0e6"] ;
242 -> 243 ;
244 [label=<education_level_Did not graduate High School &le; 0.5<br/>gini = 0.032<br/>samples = 40<br/>value = [1.811, 107.85]<br/>class = no depressive disorder>, fillcolor="#3c9fe5"] ;
243 -> 244 ;
245 [label=<income_$35,000 to less than $50,000 &le; 0.5<br/>gini = 0.012<br/>samples = 35<br/>value = [0.604, 99.105]<br/>class = no depressive disorder>, fillcolor="#3a9ee5"] ;
244 -> 245 ;
246 [label=<gini = 0.0<br/>samples = 32<br/>value = [0.0, 93.275]<br/>class = no depressive disorder>, fillcolor="#399de5"] ;
245 -> 246 ;
247 [label=<age_of_diabetes_onset_Not asked or Missing &le; 0.5<br/>gini = 0.17<br/>samples = 3<br/>value = [0.604, 5.83]<br/>class = no depressive disorder>, fillcolor="#4da7e8"] ;
245 -> 247 ;
248 [label=<gini = 0.0<br/>samples = 1<br/>value = [0.604, 0.0]<br/>class = depressive disorder>, fillcolor="#e58139"] ;
247 -> 248 ;
249 [label=<gini = 0.0<br/>samples = 2<br/>value = [0.0, 5.83]<br/>class = no depressive disorder>, fillcolor="#399de5"] ;
247 -> 249 ;
250 [label=<has_ever_smoked_Never smoked &le; 0.5<br/>gini = 0.213<br/>samples = 5<br/>value = [1.207, 8.745]<br/>class = no depressive disorder>, fillcolor="#54abe9"] ;
244 -> 250 ;
251 [label=<gini = 0.0<br/>samples = 2<br/>value = [1.207, 0.0]<br/>class = depressive disorder>, fillcolor="#e58139"] ;
250 -> 251 ;
252 [label=<gini = 0.0<br/>samples = 3<br/>value = [0.0, 8.745]<br/>class = no depressive disorder>, fillcolor="#399de5"] ;
250 -> 252 ;
253 [label=<do_they_meet_muscle_strengthening_recommendations_Meet muscle strengthening recommendations &le; 0.5<br/>gini = 0.17<br/>samples = 15<br/>value = [3.018, 29.149]<br/>class = no depressive disorder>, fillcolor="#4da7e8"] ;
243 -> 253 ;
254 [label=<had_a_stroke_No &le; 0.5<br/>gini = 0.076<br/>samples = 12<br/>value = [1.207, 29.149]<br/>class = no depressive disorder>, fillcolor="#41a1e6"] ;
253 -> 254 ;
255 [label=<gini = 0.0<br/>samples = 1<br/>value = [0.604, 0.0]<br/>class = depressive disorder>, fillcolor="#e58139"] ;
254 -> 255 ;
256 [label=<general_health_Poor &le; 0.5<br/>gini = 0.04<br/>samples = 11<br/>value = [0.604, 29.149]<br/>class = no depressive disorder>, fillcolor="#3d9fe6"] ;
254 -> 256 ;
257 [label=<gini = 0.0<br/>samples = 10<br/>value = [0.0, 29.149]<br/>class = no depressive disorder>, fillcolor="#399de5"] ;
256 -> 257 ;
258 [label=<gini = 0.0<br/>samples = 1<br/>value = [0.604, 0.0]<br/>class = depressive disorder>, fillcolor="#e58139"] ;
256 -> 258 ;
259 [label=<own/rent_your_home_Own &le; 0.5<br/>gini = 0.0<br/>samples = 3<br/>value = [1.811, 0.0]<br/>class = depressive disorder>, fillcolor="#e58139"] ;
253 -> 259 ;
260 [label=<gini = 0.0<br/>samples = 1<br/>value = [0.604, 0.0]<br/>class = depressive disorder>, fillcolor="#e58139"] ;
259 -> 260 ;
261 [label=<gini = 0.0<br/>samples = 2<br/>value = [1.207, 0.0]<br/>class = depressive disorder>, fillcolor="#e58139"] ;
259 -> 261 ;
262 [label=<high_blood_pressure_meds_No &le; 0.5<br/>gini = 0.213<br/>samples = 20<br/>value = [4.828, 34.978]<br/>class = no depressive disorder>, fillcolor="#54abe9"] ;
242 -> 262 ;
263 [label=<past_month_participate_in_physical_activities_Not asked or Missing &le; 0.5<br/>gini = 0.17<br/>samples = 18<br/>value = [3.621, 34.978]<br/>class = no depressive disorder>, fillcolor="#4da7e8"] ;
262 -> 263 ;
264 [label=<age_of_diabetes_onset_Age in years  [97 = 97 and older] &le; 0.5<br/>gini = 0.121<br/>samples = 16<br/>value = [2.414, 34.978]<br/>class = no depressive disorder>, fillcolor="#47a4e7"] ;
263 -> 264 ;
265 [label=<last_check-up_5 or more years ago &le; 0.5<br/>gini = 0.036<br/>samples = 12<br/>value = [0.604, 32.063]<br/>class = no depressive disorder>, fillcolor="#3d9fe5"] ;
264 -> 265 ;
266 [label=<gini = 0.0<br/>samples = 11<br/>value = [0.0, 32.063]<br/>class = no depressive disorder>, fillcolor="#399de5"] ;
265 -> 266 ;
267 [label=<gini = -0.0<br/>samples = 1<br/>value = [0.604, 0.0]<br/>class = depressive disorder>, fillcolor="#e58139"] ;
265 -> 267 ;
268 [label=<has_ever_smoked_Current smoker - now smokes every day &le; 0.5<br/>gini = 0.473<br/>samples = 4<br/>value = [1.811, 2.915]<br/>class = no depressive disorder>, fillcolor="#b4daf5"] ;
264 -> 268 ;
269 [label=<gini = -0.0<br/>samples = 3<br/>value = [1.811, 0.0]<br/>class = depressive disorder>, fillcolor="#e58139"] ;
268 -> 269 ;
270 [label=<gini = 0.0<br/>samples = 1<br/>value = [0.0, 2.915]<br/>class = no depressive disorder>, fillcolor="#399de5"] ;
268 -> 270 ;
271 [label=<gini = -0.0<br/>samples = 2<br/>value = [1.207, 0.0]<br/>class = depressive disorder>, fillcolor="#e58139"] ;
263 -> 271 ;
272 [label=<gini = -0.0<br/>samples = 2<br/>value = [1.207, 0.0]<br/>class = depressive disorder>, fillcolor="#e58139"] ;
262 -> 272 ;
273 [label=<gini = -0.0<br/>samples = 1<br/>value = [0.604, 0.0]<br/>class = depressive disorder>, fillcolor="#e58139"] ;
241 -> 273 ;
274 [label=<gini = -0.0<br/>samples = 1<br/>value = [0.604, 0.0]<br/>class = depressive disorder>, fillcolor="#e58139"] ;
240 -> 274 ;
275 [label=<gini = -0.0<br/>samples = 1<br/>value = [0.604, 0.0]<br/>class = depressive disorder>, fillcolor="#e58139"] ;
239 -> 275 ;
276 [label=<still_have_asthma_Yes &le; 0.5<br/>gini = 0.414<br/>samples = 9<br/>value = [3.621, 8.745]<br/>class = no depressive disorder>, fillcolor="#8bc6f0"] ;
238 -> 276 ;
277 [label=<gini = 0.0<br/>samples = 3<br/>value = [1.811, 0.0]<br/>class = depressive disorder>, fillcolor="#e58139"] ;
276 -> 277 ;
278 [label=<general_health_Fair &le; 0.5<br/>gini = 0.284<br/>samples = 6<br/>value = [1.811, 8.745]<br/>class = no depressive disorder>, fillcolor="#62b1ea"] ;
276 -> 278 ;
279 [label=<Vegetable_intake_per_day_Consumed vegetables one or more times per day &le; 0.5<br/>gini = 0.121<br/>samples = 4<br/>value = [0.604, 8.745]<br/>class = no depressive disorder>, fillcolor="#47a4e7"] ;
278 -> 279 ;
280 [label=<gini = 0.0<br/>samples = 1<br/>value = [0.604, 0.0]<br/>class = depressive disorder>, fillcolor="#e58139"] ;
279 -> 280 ;
281 [label=<gini = 0.0<br/>samples = 3<br/>value = [0.0, 8.745]<br/>class = no depressive disorder>, fillcolor="#399de5"] ;
279 -> 281 ;
282 [label=<own/rent_your_home_Rent &le; 0.5<br/>gini = 0.0<br/>samples = 2<br/>value = [1.207, 0.0]<br/>class = depressive disorder>, fillcolor="#e58139"] ;
278 -> 282 ;
283 [label=<gini = 0.0<br/>samples = 1<br/>value = [0.604, 0.0]<br/>class = depressive disorder>, fillcolor="#e58139"] ;
282 -> 283 ;
284 [label=<gini = 0.0<br/>samples = 1<br/>value = [0.604, 0.0]<br/>class = depressive disorder>, fillcolor="#e58139"] ;
282 -> 284 ;
285 [label=<gini = -0.0<br/>samples = 2<br/>value = [1.207, 0.0]<br/>class = depressive disorder>, fillcolor="#e58139"] ;
237 -> 285 ;
286 [label=<general_health_Excellent &le; 0.5<br/>gini = 0.299<br/>samples = 223<br/>value = [70.009, 311.889]<br/>class = no depressive disorder>, fillcolor="#65b3eb"] ;
236 -> 286 ;
287 [label=<general_health_Very good &le; 0.5<br/>gini = 0.291<br/>samples = 218<br/>value = [66.991, 311.889]<br/>class = no depressive disorder>, fillcolor="#64b2eb"] ;
286 -> 287 ;
288 [label=<sex_Female &le; 0.5<br/>gini = 0.266<br/>samples = 179<br/>value = [51.3, 273.996]<br/>class = no depressive disorder>, fillcolor="#5eafea"] ;
287 -> 288 ;
289 [label=<MARITAL_Married &le; 0.5<br/>gini = 0.354<br/>samples = 61<br/>value = [21.727, 72.871]<br/>class = no depressive disorder>, fillcolor="#74baed"] ;
288 -> 289 ;
290 [label=<last_check-up_Within past 2 years (1 year but less than 2 years ago) &le; 0.5<br/>gini = 0.209<br/>samples = 33<br/>value = [7.846, 58.297]<br/>class = no depressive disorder>, fillcolor="#54aae8"] ;
289 -> 290 ;
291 [label=<type_of_physical_activity_Golf (without motorized cart) &le; 0.5<br/>gini = 0.184<br/>samples = 31<br/>value = [6.639, 58.297]<br/>class = no depressive disorder>, fillcolor="#50a8e8"] ;
290 -> 291 ;
292 [label=<type_of_physical_activity_Hiking – cross-country &le; 0.5<br/>gini = 0.17<br/>samples = 30<br/>value = [6.035, 58.297]<br/>class = no depressive disorder>, fillcolor="#4da7e8"] ;
291 -> 292 ;
293 [label=<type_of_physical_activity_Elliptical/EFX machine exercise &le; 0.5<br/>gini = 0.156<br/>samples = 29<br/>value = [5.432, 58.297]<br/>class = no depressive disorder>, fillcolor="#4ba6e7"] ;
292 -> 293 ;
294 [label=<blood_cholesterol_checked_is_high_No &le; 0.5<br/>gini = 0.141<br/>samples = 28<br/>value = [4.828, 58.297]<br/>class = no depressive disorder>, fillcolor="#49a5e7"] ;
293 -> 294 ;
295 [label=<physical/mental_difficulty_doing_errands_alone_Yes &le; 0.5<br/>gini = 0.056<br/>samples = 16<br/>value = [1.207, 40.808]<br/>class = no depressive disorder>, fillcolor="#3fa0e6"] ;
294 -> 295 ;
296 [label=<gini = 0.029<br/>samples = 15<br/>value = [0.604, 40.808]<br/>class = no depressive disorder>, fillcolor="#3c9ee5"] ;
295 -> 296 ;
297 [label=<gini = -0.0<br/>samples = 1<br/>value = [0.604, 0.0]<br/>class = depressive disorder>, fillcolor="#e58139"] ;
295 -> 297 ;
298 [label=<Health_Care_Access_18-64_Don't know/Not Sure, Refused or Missing &le; 0.5<br/>gini = 0.284<br/>samples = 12<br/>value = [3.621, 17.489]<br/>class = no depressive disorder>, fillcolor="#62b1ea"] ;
294 -> 298 ;
299 [label=<gini = 0.121<br/>samples = 8<br/>value = [1.207, 17.489]<br/>class = no depressive disorder>, fillcolor="#47a4e7"] ;
298 -> 299 ;
300 [label=<gini = 0.0<br/>samples = 4<br/>value = [2.414, 0.0]<br/>class = depressive disorder>, fillcolor="#e58139"] ;
298 -> 300 ;
301 [label=<gini = -0.0<br/>samples = 1<br/>value = [0.604, 0.0]<br/>class = depressive disorder>, fillcolor="#e58139"] ;
293 -> 301 ;
302 [label=<gini = -0.0<br/>samples = 1<br/>value = [0.604, 0.0]<br/>class = depressive disorder>, fillcolor="#e58139"] ;
292 -> 302 ;
303 [label=<gini = -0.0<br/>samples = 1<br/>value = [0.604, 0.0]<br/>class = depressive disorder>, fillcolor="#e58139"] ;
291 -> 303 ;
304 [label=<gini = -0.0<br/>samples = 2<br/>value = [1.207, 0.0]<br/>class = depressive disorder>, fillcolor="#e58139"] ;
290 -> 304 ;
305 [label=<high_blood_pressure_No &le; 0.5<br/>gini = 0.5<br/>samples = 28<br/>value = [13.881, 14.574]<br/>class = no depressive disorder>, fillcolor="#f6fafe"] ;
289 -> 305 ;
306 [label=<general_health_Good &le; 0.5<br/>gini = 0.348<br/>samples = 12<br/>value = [4.225, 14.574]<br/>class = no depressive disorder>, fillcolor="#72b9ed"] ;
305 -> 306 ;
307 [label=<limited_activities_because_of_physical/mental_problems_Yes &le; 0.5<br/>gini = 0.141<br/>samples = 7<br/>value = [1.207, 14.574]<br/>class = no depressive disorder>, fillcolor="#49a5e7"] ;
306 -> 307 ;
308 [label=<gini = 0.0<br/>samples = 1<br/>value = [0.604, 0.0]<br/>class = depressive disorder>, fillcolor="#e58139"] ;
307 -> 308 ;
309 [label=<currently_employed_Self-employed &le; 0.5<br/>gini = 0.076<br/>samples = 6<br/>value = [0.604, 14.574]<br/>class = no depressive disorder>, fillcolor="#41a1e6"] ;
307 -> 309 ;
310 [label=<gini = 0.0<br/>samples = 5<br/>value = [0.0, 14.574]<br/>class = no depressive disorder>, fillcolor="#399de5"] ;
309 -> 310 ;
311 [label=<gini = 0.0<br/>samples = 1<br/>value = [0.604, 0.0]<br/>class = depressive disorder>, fillcolor="#e58139"] ;
309 -> 311 ;
312 [label=<education_level_Graduated from College or Technical School &le; 0.5<br/>gini = 0.0<br/>samples = 5<br/>value = [3.018, 0.0]<br/>class = depressive disorder>, fillcolor="#e58139"] ;
306 -> 312 ;
313 [label=<gini = 0.0<br/>samples = 3<br/>value = [1.811, 0.0]<br/>class = depressive disorder>, fillcolor="#e58139"] ;
312 -> 313 ;
314 [label=<gini = 0.0<br/>samples = 2<br/>value = [1.207, 0.0]<br/>class = depressive disorder>, fillcolor="#e58139"] ;
312 -> 314 ;
315 [label=<gini = 0.0<br/>samples = 16<br/>value = [9.656, 0.0]<br/>class = depressive disorder>, fillcolor="#e58139"] ;
305 -> 315 ;
316 [label=<thinking_physical_health-30d_Don't know/Not sure &le; 0.5<br/>gini = 0.224<br/>samples = 118<br/>value = [29.573, 201.125]<br/>class = no depressive disorder>, fillcolor="#56abe9"] ;
288 -> 316 ;
317 [label=<last_check-up_Within past 5 years (2 years but less than 5 years ago) &le; 0.5<br/>gini = 0.217<br/>samples = 116<br/>value = [28.366, 201.125]<br/>class = no depressive disorder>, fillcolor="#55abe9"] ;
316 -> 317 ;
318 [label=<named_doctor_No &le; 0.5<br/>gini = 0.21<br/>samples = 114<br/>value = [27.159, 201.125]<br/>class = no depressive disorder>, fillcolor="#54aae9"] ;
317 -> 318 ;
319 [label=<do_they_Meet_Aerobic_Recommendations_Did Not Meet Aerobic Recommendations &le; 0.5<br/>gini = 0.197<br/>samples = 109<br/>value = [24.745, 198.21]<br/>class = no depressive disorder>, fillcolor="#52a9e8"] ;
318 -> 319 ;
320 [label=<last_check-up_Within past 2 years (1 year but less than 2 years ago) &le; 0.5<br/>gini = 0.087<br/>samples = 32<br/>value = [3.621, 75.786]<br/>class = no depressive disorder>, fillcolor="#42a2e6"] ;
319 -> 320 ;
321 [label=<children_Number of children &le; 0.5<br/>gini = 0.074<br/>samples = 31<br/>value = [3.018, 75.786]<br/>class = no depressive disorder>, fillcolor="#41a1e6"] ;
320 -> 321 ;
322 [label=<income_$25,000 to less than $35,000 &le; 0.5<br/>gini = 0.047<br/>samples = 28<br/>value = [1.811, 72.871]<br/>class = no depressive disorder>, fillcolor="#3e9fe6"] ;
321 -> 322 ;
323 [label=<gini = 0.018<br/>samples = 24<br/>value = [0.604, 67.042]<br/>class = no depressive disorder>, fillcolor="#3b9ee5"] ;
322 -> 323 ;
324 [label=<gini = 0.284<br/>samples = 4<br/>value = [1.207, 5.83]<br/>class = no depressive disorder>, fillcolor="#62b1ea"] ;
322 -> 324 ;
325 [label=<do_they_meet_muscle_strengthening_recommendations_Did not meet muscle strengthening recommendations &le; 0.5<br/>gini = 0.414<br/>samples = 3<br/>value = [1.207, 2.915]<br/>class = no depressive disorder>, fillcolor="#8bc6f0"] ;
321 -> 325 ;
326 [label=<gini = 0.0<br/>samples = 1<br/>value = [0.0, 2.915]<br/>class = no depressive disorder>, fillcolor="#399de5"] ;
325 -> 326 ;
327 [label=<gini = 0.0<br/>samples = 2<br/>value = [1.207, 0.0]<br/>class = depressive disorder>, fillcolor="#e58139"] ;
325 -> 327 ;
328 [label=<gini = -0.0<br/>samples = 1<br/>value = [0.604, 0.0]<br/>class = depressive disorder>, fillcolor="#e58139"] ;
320 -> 328 ;
329 [label=<MARITAL_Separated &le; 0.5<br/>gini = 0.251<br/>samples = 77<br/>value = [21.123, 122.424]<br/>class = no depressive disorder>, fillcolor="#5baee9"] ;
319 -> 329 ;
330 [label=<education_level_Graduated from College or Technical School &le; 0.5<br/>gini = 0.241<br/>samples = 75<br/>value = [19.916, 122.424]<br/>class = no depressive disorder>, fillcolor="#59ade9"] ;
329 -> 330 ;
331 [label=<kidney_disease_Yes &le; 0.5<br/>gini = 0.179<br/>samples = 49<br/>value = [10.26, 93.275]<br/>class = no depressive disorder>, fillcolor="#4fa8e8"] ;
330 -> 331 ;
332 [label=<gini = 0.152<br/>samples = 46<br/>value = [8.449, 93.275]<br/>class = no depressive disorder>, fillcolor="#4ba6e7"] ;
331 -> 332 ;
333 [label=<gini = -0.0<br/>samples = 3<br/>value = [1.811, 0.0]<br/>class = depressive disorder>, fillcolor="#e58139"] ;
331 -> 333 ;
334 [label=<income_$15,000 to less than $25,000 &le; 0.5<br/>gini = 0.374<br/>samples = 26<br/>value = [9.656, 29.149]<br/>class = no depressive disorder>, fillcolor="#7bbdee"] ;
330 -> 334 ;
335 [label=<gini = 0.319<br/>samples = 22<br/>value = [7.242, 29.149]<br/>class = no depressive disorder>, fillcolor="#6ab5eb"] ;
334 -> 335 ;
336 [label=<gini = -0.0<br/>samples = 4<br/>value = [2.414, 0.0]<br/>class = depressive disorder>, fillcolor="#e58139"] ;
334 -> 336 ;
337 [label=<gini = -0.0<br/>samples = 2<br/>value = [1.207, 0.0]<br/>class = depressive disorder>, fillcolor="#e58139"] ;
329 -> 337 ;
338 [label=<education_level_Attended College or Technical School &le; 0.5<br/>gini = 0.496<br/>samples = 5<br/>value = [2.414, 2.915]<br/>class = no depressive disorder>, fillcolor="#ddeefb"] ;
318 -> 338 ;
339 [label=<gini = 0.0<br/>samples = 4<br/>value = [2.414, 0.0]<br/>class = depressive disorder>, fillcolor="#e58139"] ;
338 -> 339 ;
340 [label=<gini = 0.0<br/>samples = 1<br/>value = [0.0, 2.915]<br/>class = no depressive disorder>, fillcolor="#399de5"] ;
338 -> 340 ;
341 [label=<gini = -0.0<br/>samples = 2<br/>value = [1.207, 0.0]<br/>class = depressive disorder>, fillcolor="#e58139"] ;
317 -> 341 ;
342 [label=<gini = -0.0<br/>samples = 2<br/>value = [1.207, 0.0]<br/>class = depressive disorder>, fillcolor="#e58139"] ;
316 -> 342 ;
343 [label=<income_$35,000 to less than $50,000 &le; 0.5<br/>gini = 0.414<br/>samples = 39<br/>value = [15.692, 37.893]<br/>class = no depressive disorder>, fillcolor="#8bc6f0"] ;
287 -> 343 ;
344 [label=<do_they_Meet_Aerobic_Recommendations_Don't know/Not Sure/Refused/Missing &le; 0.5<br/>gini = 0.346<br/>samples = 31<br/>value = [10.863, 37.893]<br/>class = no depressive disorder>, fillcolor="#72b9ec"] ;
343 -> 344 ;
345 [label=<high_blood_pressure_meds_Yes &le; 0.5<br/>gini = 0.298<br/>samples = 27<br/>value = [8.449, 37.893]<br/>class = no depressive disorder>, fillcolor="#65b3eb"] ;
344 -> 345 ;
346 [label=<currently_employed_Employed for wages &le; 0.5<br/>gini = 0.414<br/>samples = 21<br/>value = [8.449, 20.404]<br/>class = no depressive disorder>, fillcolor="#8bc6f0"] ;
345 -> 346 ;
347 [label=<have_diabetes_No, pre-diabetes or borderline diabetes &le; 0.5<br/>gini = 0.469<br/>samples = 9<br/>value = [4.828, 2.915]<br/>class = depressive disorder>, fillcolor="#f5cdb1"] ;
346 -> 347 ;
348 [label=<gini = 0.0<br/>samples = 8<br/>value = [4.828, 0.0]<br/>class = depressive disorder>, fillcolor="#e58139"] ;
347 -> 348 ;
349 [label=<gini = 0.0<br/>samples = 1<br/>value = [0.0, 2.915]<br/>class = no depressive disorder>, fillcolor="#399de5"] ;
347 -> 349 ;
350 [label=<needed_medical_but_cost_No &le; 0.5<br/>gini = 0.284<br/>samples = 12<br/>value = [3.621, 17.489]<br/>class = no depressive disorder>, fillcolor="#62b1ea"] ;
346 -> 350 ;
351 [label=<gini = 0.0<br/>samples = 2<br/>value = [1.207, 0.0]<br/>class = depressive disorder>, fillcolor="#e58139"] ;
350 -> 351 ;
352 [label=<age_Age 35 - 44 &le; 0.5<br/>gini = 0.213<br/>samples = 10<br/>value = [2.414, 17.489]<br/>class = no depressive disorder>, fillcolor="#54abe9"] ;
350 -> 352 ;
353 [label=<MARITAL_Divorced &le; 0.5<br/>gini = 0.121<br/>samples = 8<br/>value = [1.207, 17.489]<br/>class = no depressive disorder>, fillcolor="#47a4e7"] ;
352 -> 353 ;
354 [label=<education_level_Graduated High School &le; 0.5<br/>gini = 0.064<br/>samples = 7<br/>value = [0.604, 17.489]<br/>class = no depressive disorder>, fillcolor="#40a0e6"] ;
353 -> 354 ;
355 [label=<gini = 0.0<br/>samples = 6<br/>value = [0.0, 17.489]<br/>class = no depressive disorder>, fillcolor="#399de5"] ;
354 -> 355 ;
356 [label=<gini = 0.0<br/>samples = 1<br/>value = [0.604, 0.0]<br/>class = depressive disorder>, fillcolor="#e58139"] ;
354 -> 356 ;
357 [label=<gini = 0.0<br/>samples = 1<br/>value = [0.604, 0.0]<br/>class = depressive disorder>, fillcolor="#e58139"] ;
353 -> 357 ;
358 [label=<own/rent_your_home_Rent &le; 0.5<br/>gini = 0.0<br/>samples = 2<br/>value = [1.207, 0.0]<br/>class = depressive disorder>, fillcolor="#e58139"] ;
352 -> 358 ;
359 [label=<gini = 0.0<br/>samples = 1<br/>value = [0.604, 0.0]<br/>class = depressive disorder>, fillcolor="#e58139"] ;
358 -> 359 ;
360 [label=<gini = 0.0<br/>samples = 1<br/>value = [0.604, 0.0]<br/>class = depressive disorder>, fillcolor="#e58139"] ;
358 -> 360 ;
361 [label=<gini = 0.0<br/>samples = 6<br/>value = [0.0, 17.489]<br/>class = no depressive disorder>, fillcolor="#399de5"] ;
345 -> 361 ;
362 [label=<gini = -0.0<br/>samples = 4<br/>value = [2.414, 0.0]<br/>class = depressive disorder>, fillcolor="#e58139"] ;
344 -> 362 ;
363 [label=<gini = -0.0<br/>samples = 8<br/>value = [4.828, 0.0]<br/>class = depressive disorder>, fillcolor="#e58139"] ;
343 -> 363 ;
364 [label=<gini = 0.0<br/>samples = 5<br/>value = [3.018, 0.0]<br/>class = depressive disorder>, fillcolor="#e58139"] ;
286 -> 364 ;
365 [label=<arthritis_rheumatoid_arthritis_gout_lupus_fibromyalgia_Yes &le; 0.5<br/>gini = 0.484<br/>samples = 1354<br/>value = [629.478, 906.52]<br/>class = no depressive disorder>, fillcolor="#c2e1f7"] ;
107 -> 365 ;
366 [label=<named_doctor_No &le; 0.5<br/>gini = 0.499<br/>samples = 965<br/>value = [475.578, 515.929]<br/>class = no depressive disorder>, fillcolor="#f0f7fd"] ;
365 -> 366 ;
367 [label=<do_they_meet_muscle_strengthening_recommendations_Meet muscle strengthening recommendations &le; 0.5<br/>gini = 0.496<br/>samples = 805<br/>value = [388.671, 469.291]<br/>class = no depressive disorder>, fillcolor="#ddeefb"] ;
366 -> 367 ;
368 [label=<children_Number of children &le; 0.5<br/>gini = 0.485<br/>samples = 553<br/>value = [258.309, 364.357]<br/>class = no depressive disorder>, fillcolor="#c5e2f7"] ;
367 -> 368 ;
369 [label=<thinking_mental_health-30d_Number of days &le; 0.5<br/>gini = 0.467<br/>samples = 332<br/>value = [148.467, 250.677]<br/>class = no depressive disorder>, fillcolor="#aed7f4"] ;
368 -> 369 ;
370 [label=<gini = 0.0<br/>samples = 9<br/>value = [5.432, 0.0]<br/>class = depressive disorder>, fillcolor="#e58139"] ;
369 -> 370 ;
371 [label=<income_$25,000 to less than $35,000 &le; 0.5<br/>gini = 0.463<br/>samples = 323<br/>value = [143.036, 250.677]<br/>class = no depressive disorder>, fillcolor="#aad5f4"] ;
369 -> 371 ;
372 [label=<currently_employed_Out of work for less than 1 year &le; 0.5<br/>gini = 0.455<br/>samples = 299<br/>value = [130.362, 241.933]<br/>class = no depressive disorder>, fillcolor="#a4d2f3"] ;
371 -> 372 ;
373 [label=<MARITAL_Separated &le; 0.5<br/>gini = 0.463<br/>samples = 290<br/>value = [128.551, 224.444]<br/>class = no depressive disorder>, fillcolor="#aad5f4"] ;
372 -> 373 ;
374 [label=<health_problems_use_special_equipment_Yes &le; 0.5<br/>gini = 0.46<br/>samples = 285<br/>value = [125.533, 224.444]<br/>class = no depressive disorder>, fillcolor="#a8d4f4"] ;
373 -> 374 ;
375 [label=<MARITAL_Married &le; 0.5<br/>gini = 0.468<br/>samples = 272<br/>value = [121.912, 204.04]<br/>class = no depressive disorder>, fillcolor="#afd8f5"] ;
374 -> 375 ;
376 [label=<has_ever_smoked_Current smoker - now smokes some days &le; 0.5<br/>gini = 0.429<br/>samples = 140<br/>value = [57.938, 128.254]<br/>class = no depressive disorder>, fillcolor="#92c9f1"] ;
375 -> 376 ;
377 [label=<sex_Female &le; 0.5<br/>gini = 0.42<br/>samples = 135<br/>value = [54.921, 128.254]<br/>class = no depressive disorder>, fillcolor="#8ec7f0"] ;
376 -> 377 ;
378 [label=<gini = 0.493<br/>samples = 43<br/>value = [20.52, 26.234]<br/>class = no depressive disorder>, fillcolor="#d4eaf9"] ;
377 -> 378 ;
379 [label=<gini = 0.377<br/>samples = 92<br/>value = [34.401, 102.02]<br/>class = no depressive disorder>, fillcolor="#7cbeee"] ;
377 -> 379 ;
380 [label=<gini = 0.0<br/>samples = 5<br/>value = [3.018, 0.0]<br/>class = depressive disorder>, fillcolor="#e58139"] ;
376 -> 380 ;
381 [label=<income_$50,000 or more &le; 0.5<br/>gini = 0.496<br/>samples = 132<br/>value = [63.974, 75.786]<br/>class = no depressive disorder>, fillcolor="#e0f0fb"] ;
375 -> 381 ;
382 [label=<has_ever_smoked_Never smoked &le; 0.5<br/>gini = 0.455<br/>samples = 40<br/>value = [21.727, 11.659]<br/>class = depressive disorder>, fillcolor="#f3c5a3"] ;
381 -> 382 ;
383 [label=<gini = 0.481<br/>samples = 17<br/>value = [7.846, 11.659]<br/>class = no depressive disorder>, fillcolor="#bedff6"] ;
382 -> 383 ;
384 [label=<gini = -0.0<br/>samples = 23<br/>value = [13.881, 0.0]<br/>class = depressive disorder>, fillcolor="#e58139"] ;
382 -> 384 ;
385 [label=<currently_employed_Retired &le; 0.5<br/>gini = 0.479<br/>samples = 92<br/>value = [42.247, 64.127]<br/>class = no depressive disorder>, fillcolor="#bbdef6"] ;
381 -> 385 ;
386 [label=<gini = 0.496<br/>samples = 76<br/>value = [36.815, 43.723]<br/>class = no depressive disorder>, fillcolor="#e0f0fb"] ;
385 -> 386 ;
387 [label=<gini = 0.332<br/>samples = 16<br/>value = [5.432, 20.404]<br/>class = no depressive disorder>, fillcolor="#6eb7ec"] ;
385 -> 387 ;
388 [label=<Fruit_intake_per_day_Consumed fruit less than one time per day &le; 0.5<br/>gini = 0.256<br/>samples = 13<br/>value = [3.621, 20.404]<br/>class = no depressive disorder>, fillcolor="#5caeea"] ;
374 -> 388 ;
389 [label=<MARITAL_Widowed &le; 0.5<br/>gini = 0.105<br/>samples = 9<br/>value = [1.207, 20.404]<br/>class = no depressive disorder>, fillcolor="#45a3e7"] ;
388 -> 389 ;
390 [label=<gini = 0.0<br/>samples = 7<br/>value = [0.0, 20.404]<br/>class = no depressive disorder>, fillcolor="#399de5"] ;
389 -> 390 ;
391 [label=<Body_Mass_Don't know/Refused/Missing &le; 0.5<br/>gini = 0.0<br/>samples = 2<br/>value = [1.207, 0.0]<br/>class = depressive disorder>, fillcolor="#e58139"] ;
389 -> 391 ;
392 [label=<gini = 0.0<br/>samples = 1<br/>value = [0.604, 0.0]<br/>class = depressive disorder>, fillcolor="#e58139"] ;
391 -> 392 ;
393 [label=<gini = 0.0<br/>samples = 1<br/>value = [0.604, 0.0]<br/>class = depressive disorder>, fillcolor="#e58139"] ;
391 -> 393 ;
394 [label=<named_doctor_Yes, only one &le; 0.5<br/>gini = 0.0<br/>samples = 4<br/>value = [2.414, 0.0]<br/>class = depressive disorder>, fillcolor="#e58139"] ;
388 -> 394 ;
395 [label=<gini = 0.0<br/>samples = 1<br/>value = [0.604, 0.0]<br/>class = depressive disorder>, fillcolor="#e58139"] ;
394 -> 395 ;
396 [label=<gini = 0.0<br/>samples = 3<br/>value = [1.811, 0.0]<br/>class = depressive disorder>, fillcolor="#e58139"] ;
394 -> 396 ;
397 [label=<gini = 0.0<br/>samples = 5<br/>value = [3.018, 0.0]<br/>class = depressive disorder>, fillcolor="#e58139"] ;
373 -> 397 ;
398 [label=<last_check-up_5 or more years ago &le; 0.5<br/>gini = 0.17<br/>samples = 9<br/>value = [1.811, 17.489]<br/>class = no depressive disorder>, fillcolor="#4da7e8"] ;
372 -> 398 ;
399 [label=<have_diabetes_No &le; 0.5<br/>gini = 0.064<br/>samples = 7<br/>value = [0.604, 17.489]<br/>class = no depressive disorder>, fillcolor="#40a0e6"] ;
398 -> 399 ;
400 [label=<gini = 0.0<br/>samples = 1<br/>value = [0.604, 0.0]<br/>class = depressive disorder>, fillcolor="#e58139"] ;
399 -> 400 ;
401 [label=<gini = 0.0<br/>samples = 6<br/>value = [0.0, 17.489]<br/>class = no depressive disorder>, fillcolor="#399de5"] ;
399 -> 401 ;
402 [label=<blood_cholesterol_checked_within_5y_Don't know/Not Sure Or Refused/Missing &le; 0.5<br/>gini = 0.0<br/>samples = 2<br/>value = [1.207, 0.0]<br/>class = depressive disorder>, fillcolor="#e58139"] ;
398 -> 402 ;
403 [label=<gini = 0.0<br/>samples = 1<br/>value = [0.604, 0.0]<br/>class = depressive disorder>, fillcolor="#e58139"] ;
402 -> 403 ;
404 [label=<gini = 0.0<br/>samples = 1<br/>value = [0.604, 0.0]<br/>class = depressive disorder>, fillcolor="#e58139"] ;
402 -> 404 ;
405 [label=<still_have_asthma_Yes &le; 0.5<br/>gini = 0.483<br/>samples = 24<br/>value = [12.674, 8.745]<br/>class = depressive disorder>, fillcolor="#f7d8c2"] ;
371 -> 405 ;
406 [label=<currently_employed_A homemaker &le; 0.5<br/>gini = 0.323<br/>samples = 20<br/>value = [11.467, 2.915]<br/>class = depressive disorder>, fillcolor="#eca16b"] ;
405 -> 406 ;
407 [label=<gini = 0.0<br/>samples = 19<br/>value = [11.467, 0.0]<br/>class = depressive disorder>, fillcolor="#e58139"] ;
406 -> 407 ;
408 [label=<gini = 0.0<br/>samples = 1<br/>value = [0.0, 2.915]<br/>class = no depressive disorder>, fillcolor="#399de5"] ;
406 -> 408 ;
409 [label=<type_of_physical_activity_Not asked or Missing &le; 0.5<br/>gini = 0.284<br/>samples = 4<br/>value = [1.207, 5.83]<br/>class = no depressive disorder>, fillcolor="#62b1ea"] ;
405 -> 409 ;
410 [label=<gini = 0.0<br/>samples = 2<br/>value = [0.0, 5.83]<br/>class = no depressive disorder>, fillcolor="#399de5"] ;
409 -> 410 ;
411 [label=<Health_Care_Access_18-64_Have health care coverage &le; 0.5<br/>gini = 0.0<br/>samples = 2<br/>value = [1.207, 0.0]<br/>class = depressive disorder>, fillcolor="#e58139"] ;
409 -> 411 ;
412 [label=<gini = 0.0<br/>samples = 1<br/>value = [0.604, 0.0]<br/>class = depressive disorder>, fillcolor="#e58139"] ;
411 -> 412 ;
413 [label=<gini = 0.0<br/>samples = 1<br/>value = [0.604, 0.0]<br/>class = depressive disorder>, fillcolor="#e58139"] ;
411 -> 413 ;
414 [label=<currently_employed_A student &le; 0.5<br/>gini = 0.5<br/>samples = 221<br/>value = [109.842, 113.679]<br/>class = no depressive disorder>, fillcolor="#f8fcfe"] ;
368 -> 414 ;
415 [label=<Health_Care_Access_18-64_Do not have health care coverage &le; 0.5<br/>gini = 0.498<br/>samples = 207<br/>value = [101.392, 113.679]<br/>class = no depressive disorder>, fillcolor="#eaf4fc"] ;
414 -> 415 ;
416 [label=<Fruit_intake_per_day_Don´t know, refused or missing values &le; 0.5<br/>gini = 0.496<br/>samples = 197<br/>value = [95.357, 113.679]<br/>class = no depressive disorder>, fillcolor="#dfeffb"] ;
415 -> 416 ;
417 [label=<sex_Female &le; 0.5<br/>gini = 0.5<br/>samples = 185<br/>value = [91.736, 96.19]<br/>class = no depressive disorder>, fillcolor="#f6fafe"] ;
416 -> 417 ;
418 [label=<MARITAL_Married &le; 0.5<br/>gini = 0.417<br/>samples = 50<br/>value = [27.762, 11.659]<br/>class = depressive disorder>, fillcolor="#f0b68c"] ;
417 -> 418 ;
419 [label=<do_they_Meet_Aerobic_Recommendations_Meet Aerobic Recommendations &le; 0.5<br/>gini = 0.473<br/>samples = 12<br/>value = [5.432, 8.745]<br/>class = no depressive disorder>, fillcolor="#b4daf5"] ;
418 -> 419 ;
420 [label=<last_check-up_Within past year (anytime less than 12 months ago) &le; 0.5<br/>gini = 0.339<br/>samples = 7<br/>value = [2.414, 8.745]<br/>class = no depressive disorder>, fillcolor="#70b8ec"] ;
419 -> 420 ;
421 [label=<gini = 0.0<br/>samples = 2<br/>value = [1.207, 0.0]<br/>class = depressive disorder>, fillcolor="#e58139"] ;
420 -> 421 ;
422 [label=<thinking_physical_health-30d_None &le; 0.5<br/>gini = 0.213<br/>samples = 5<br/>value = [1.207, 8.745]<br/>class = no depressive disorder>, fillcolor="#54abe9"] ;
420 -> 422 ;
423 [label=<gini = 0.0<br/>samples = 1<br/>value = [0.604, 0.0]<br/>class = depressive disorder>, fillcolor="#e58139"] ;
422 -> 423 ;
424 [label=<gini = 0.121<br/>samples = 4<br/>value = [0.604, 8.745]<br/>class = no depressive disorder>, fillcolor="#47a4e7"] ;
422 -> 424 ;
425 [label=<high_blood_pressure_No &le; 0.5<br/>gini = 0.0<br/>samples = 5<br/>value = [3.018, 0.0]<br/>class = depressive disorder>, fillcolor="#e58139"] ;
419 -> 425 ;
426 [label=<gini = 0.0<br/>samples = 1<br/>value = [0.604, 0.0]<br/>class = depressive disorder>, fillcolor="#e58139"] ;
425 -> 426 ;
427 [label=<gini = 0.0<br/>samples = 4<br/>value = [2.414, 0.0]<br/>class = depressive disorder>, fillcolor="#e58139"] ;
425 -> 427 ;
428 [label=<health_problems_use_special_equipment_No &le; 0.5<br/>gini = 0.204<br/>samples = 38<br/>value = [22.33, 2.915]<br/>class = depressive disorder>, fillcolor="#e89153"] ;
418 -> 428 ;
429 [label=<currently_employed_Self-employed &le; 0.5<br/>gini = 0.284<br/>samples = 2<br/>value = [0.604, 2.915]<br/>class = no depressive disorder>, fillcolor="#62b1ea"] ;
428 -> 429 ;
430 [label=<gini = 0.0<br/>samples = 1<br/>value = [0.0, 2.915]<br/>class = no depressive disorder>, fillcolor="#399de5"] ;
429 -> 430 ;
431 [label=<gini = 0.0<br/>samples = 1<br/>value = [0.604, 0.0]<br/>class = depressive disorder>, fillcolor="#e58139"] ;
429 -> 431 ;
432 [label=<gini = 0.0<br/>samples = 36<br/>value = [21.727, 0.0]<br/>class = depressive disorder>, fillcolor="#e58139"] ;
428 -> 432 ;
433 [label=<has_ever_smoked_Never smoked &le; 0.5<br/>gini = 0.49<br/>samples = 135<br/>value = [63.974, 84.531]<br/>class = no depressive disorder>, fillcolor="#cfe7f9"] ;
417 -> 433 ;
434 [label=<general_health_Excellent &le; 0.5<br/>gini = 0.42<br/>samples = 43<br/>value = [17.502, 40.808]<br/>class = no depressive disorder>, fillcolor="#8ec7f0"] ;
433 -> 434 ;
435 [label=<age_Age 35 - 44 &le; 0.5<br/>gini = 0.362<br/>samples = 35<br/>value = [12.674, 40.808]<br/>class = no depressive disorder>, fillcolor="#76bbed"] ;
434 -> 435 ;
436 [label=<do_they_meet_muscle_strengthening_recommendations_Don't know/Not Sure/Refused/Missing &le; 0.5<br/>gini = 0.213<br/>samples = 20<br/>value = [4.828, 34.978]<br/>class = no depressive disorder>, fillcolor="#54abe9"] ;
435 -> 436 ;
437 [label=<gini = 0.17<br/>samples = 18<br/>value = [3.621, 34.978]<br/>class = no depressive disorder>, fillcolor="#4da7e8"] ;
436 -> 437 ;
438 [label=<gini = -0.0<br/>samples = 2<br/>value = [1.207, 0.0]<br/>class = depressive disorder>, fillcolor="#e58139"] ;
436 -> 438 ;
439 [label=<Vegetable_intake_per_day_Consumed vegetables one or more times per day &le; 0.5<br/>gini = 0.489<br/>samples = 15<br/>value = [7.846, 5.83]<br/>class = depressive disorder>, fillcolor="#f8dfcc"] ;
435 -> 439 ;
440 [label=<gini = 0.284<br/>samples = 4<br/>value = [1.207, 5.83]<br/>class = no depressive disorder>, fillcolor="#62b1ea"] ;
439 -> 440 ;
441 [label=<gini = 0.0<br/>samples = 11<br/>value = [6.639, 0.0]<br/>class = depressive disorder>, fillcolor="#e58139"] ;
439 -> 441 ;
442 [label=<gini = -0.0<br/>samples = 8<br/>value = [4.828, 0.0]<br/>class = depressive disorder>, fillcolor="#e58139"] ;
434 -> 442 ;
443 [label=<own/rent_your_home_Rent &le; 0.5<br/>gini = 0.5<br/>samples = 92<br/>value = [46.471, 43.723]<br/>class = depressive disorder>, fillcolor="#fdf8f3"] ;
433 -> 443 ;
444 [label=<blood_cholesterol_checked_within_5y_Had cholesterol checked in past 5 years &le; 0.5<br/>gini = 0.489<br/>samples = 55<br/>value = [25.952, 34.978]<br/>class = no depressive disorder>, fillcolor="#cce6f8"] ;
443 -> 444 ;
445 [label=<gini = 0.0<br/>samples = 9<br/>value = [5.432, 0.0]<br/>class = depressive disorder>, fillcolor="#e58139"] ;
444 -> 445 ;
446 [label=<education_level_Attended College or Technical School &le; 0.5<br/>gini = 0.466<br/>samples = 46<br/>value = [20.52, 34.978]<br/>class = no depressive disorder>, fillcolor="#add6f4"] ;
444 -> 446 ;
447 [label=<gini = 0.439<br/>samples = 40<br/>value = [16.899, 34.978]<br/>class = no depressive disorder>, fillcolor="#99ccf2"] ;
446 -> 447 ;
448 [label=<gini = -0.0<br/>samples = 6<br/>value = [3.621, 0.0]<br/>class = depressive disorder>, fillcolor="#e58139"] ;
446 -> 448 ;
449 [label=<blood_cholesterol_checked_within_5y_Have never had cholesterol checked &le; 0.5<br/>gini = 0.419<br/>samples = 37<br/>value = [20.52, 8.745]<br/>class = depressive disorder>, fillcolor="#f0b78d"] ;
443 -> 449 ;
450 [label=<gini = 0.0<br/>samples = 28<br/>value = [16.899, 0.0]<br/>class = depressive disorder>, fillcolor="#e58139"] ;
449 -> 450 ;
451 [label=<thinking_physical_health-30d_None &le; 0.5<br/>gini = 0.414<br/>samples = 9<br/>value = [3.621, 8.745]<br/>class = no depressive disorder>, fillcolor="#8bc6f0"] ;
449 -> 451 ;
452 [label=<gini = 0.213<br/>samples = 5<br/>value = [1.207, 8.745]<br/>class = no depressive disorder>, fillcolor="#54abe9"] ;
451 -> 452 ;
453 [label=<gini = 0.0<br/>samples = 4<br/>value = [2.414, 0.0]<br/>class = depressive disorder>, fillcolor="#e58139"] ;
451 -> 453 ;
454 [label=<general_health_Excellent &le; 0.5<br/>gini = 0.284<br/>samples = 12<br/>value = [3.621, 17.489]<br/>class = no depressive disorder>, fillcolor="#62b1ea"] ;
416 -> 454 ;
455 [label=<age_Age 55 - 64 &le; 0.5<br/>gini = 0.17<br/>samples = 9<br/>value = [1.811, 17.489]<br/>class = no depressive disorder>, fillcolor="#4da7e8"] ;
454 -> 455 ;
456 [label=<MARITAL_Separated &le; 0.5<br/>gini = 0.121<br/>samples = 8<br/>value = [1.207, 17.489]<br/>class = no depressive disorder>, fillcolor="#47a4e7"] ;
455 -> 456 ;
457 [label=<blood_cholesterol_checked_is_high_Missing &le; 0.5<br/>gini = 0.064<br/>samples = 7<br/>value = [0.604, 17.489]<br/>class = no depressive disorder>, fillcolor="#40a0e6"] ;
456 -> 457 ;
458 [label=<gini = 0.0<br/>samples = 5<br/>value = [0.0, 14.574]<br/>class = no depressive disorder>, fillcolor="#399de5"] ;
457 -> 458 ;
459 [label=<own/rent_your_home_Own &le; 0.5<br/>gini = 0.284<br/>samples = 2<br/>value = [0.604, 2.915]<br/>class = no depressive disorder>, fillcolor="#62b1ea"] ;
457 -> 459 ;
460 [label=<gini = 0.0<br/>samples = 1<br/>value = [0.604, 0.0]<br/>class = depressive disorder>, fillcolor="#e58139"] ;
459 -> 460 ;
461 [label=<gini = 0.0<br/>samples = 1<br/>value = [0.0, 2.915]<br/>class = no depressive disorder>, fillcolor="#399de5"] ;
459 -> 461 ;
462 [label=<gini = 0.0<br/>samples = 1<br/>value = [0.604, 0.0]<br/>class = depressive disorder>, fillcolor="#e58139"] ;
456 -> 462 ;
463 [label=<gini = 0.0<br/>samples = 1<br/>value = [0.604, 0.0]<br/>class = depressive disorder>, fillcolor="#e58139"] ;
455 -> 463 ;
464 [label=<income_$25,000 to less than $35,000 &le; 0.5<br/>gini = 0.0<br/>samples = 3<br/>value = [1.811, 0.0]<br/>class = depressive disorder>, fillcolor="#e58139"] ;
454 -> 464 ;
465 [label=<gini = 0.0<br/>samples = 2<br/>value = [1.207, 0.0]<br/>class = depressive disorder>, fillcolor="#e58139"] ;
464 -> 465 ;
466 [label=<gini = 0.0<br/>samples = 1<br/>value = [0.604, 0.0]<br/>class = depressive disorder>, fillcolor="#e58139"] ;
464 -> 466 ;
467 [label=<gini = 0.0<br/>samples = 10<br/>value = [6.035, 0.0]<br/>class = depressive disorder>, fillcolor="#e58139"] ;
415 -> 467 ;
468 [label=<gini = 0.0<br/>samples = 14<br/>value = [8.449, 0.0]<br/>class = depressive disorder>, fillcolor="#e58139"] ;
414 -> 468 ;
469 [label=<currently_employed_A homemaker &le; 0.5<br/>gini = 0.494<br/>samples = 252<br/>value = [130.362, 104.935]<br/>class = depressive disorder>, fillcolor="#fae6d8"] ;
367 -> 469 ;
470 [label=<general_health_Very good &le; 0.5<br/>gini = 0.48<br/>samples = 239<br/>value = [126.74, 84.531]<br/>class = depressive disorder>, fillcolor="#f6d5bd"] ;
469 -> 470 ;
471 [label=<MARITAL_Widowed &le; 0.5<br/>gini = 0.375<br/>samples = 124<br/>value = [70.009, 23.319]<br/>class = depressive disorder>, fillcolor="#eeab7b"] ;
470 -> 471 ;
472 [label=<kidney_disease_No &le; 0.5<br/>gini = 0.288<br/>samples = 119<br/>value = [68.802, 14.574]<br/>class = depressive disorder>, fillcolor="#eb9c63"] ;
471 -> 472 ;
473 [label=<gini = 0.0<br/>samples = 1<br/>value = [0.0, 2.915]<br/>class = no depressive disorder>, fillcolor="#399de5"] ;
472 -> 473 ;
474 [label=<type_of_physical_activity_Running &le; 0.5<br/>gini = 0.248<br/>samples = 118<br/>value = [68.802, 11.659]<br/>class = depressive disorder>, fillcolor="#e9965b"] ;
472 -> 474 ;
475 [label=<type_of_physical_activity_Other______ &le; 0.5<br/>gini = 0.093<br/>samples = 95<br/>value = [56.731, 2.915]<br/>class = depressive disorder>, fillcolor="#e68743"] ;
474 -> 475 ;
476 [label=<gini = 0.0<br/>samples = 92<br/>value = [55.524, 0.0]<br/>class = depressive disorder>, fillcolor="#e58139"] ;
475 -> 476 ;
477 [label=<limited_activities_because_of_physical/mental_problems_No &le; 0.5<br/>gini = 0.414<br/>samples = 3<br/>value = [1.207, 2.915]<br/>class = no depressive disorder>, fillcolor="#8bc6f0"] ;
475 -> 477 ;
478 [label=<gini = 0.0<br/>samples = 1<br/>value = [0.0, 2.915]<br/>class = no depressive disorder>, fillcolor="#399de5"] ;
477 -> 478 ;
479 [label=<gini = 0.0<br/>samples = 2<br/>value = [1.207, 0.0]<br/>class = depressive disorder>, fillcolor="#e58139"] ;
477 -> 479 ;
480 [label=<age_Age 55 - 64 &le; 0.5<br/>gini = 0.487<br/>samples = 23<br/>value = [12.071, 8.745]<br/>class = depressive disorder>, fillcolor="#f8dcc8"] ;
474 -> 480 ;
481 [label=<named_doctor_Yes, only one &le; 0.5<br/>gini = 0.439<br/>samples = 22<br/>value = [12.071, 5.83]<br/>class = depressive disorder>, fillcolor="#f2be99"] ;
480 -> 481 ;
482 [label=<still_have_asthma_No &le; 0.5<br/>gini = 0.414<br/>samples = 3<br/>value = [1.207, 2.915]<br/>class = no depressive disorder>, fillcolor="#8bc6f0"] ;
481 -> 482 ;
483 [label=<own/rent_your_home_Rent &le; 0.5<br/>gini = 0.284<br/>samples = 2<br/>value = [0.604, 2.915]<br/>class = no depressive disorder>, fillcolor="#62b1ea"] ;
482 -> 483 ;
484 [label=<gini = 0.0<br/>samples = 1<br/>value = [0.0, 2.915]<br/>class = no depressive disorder>, fillcolor="#399de5"] ;
483 -> 484 ;
485 [label=<gini = 0.0<br/>samples = 1<br/>value = [0.604, 0.0]<br/>class = depressive disorder>, fillcolor="#e58139"] ;
483 -> 485 ;
486 [label=<gini = 0.0<br/>samples = 1<br/>value = [0.604, 0.0]<br/>class = depressive disorder>, fillcolor="#e58139"] ;
482 -> 486 ;
487 [label=<income_$25,000 to less than $35,000 &le; 0.5<br/>gini = 0.334<br/>samples = 19<br/>value = [10.863, 2.915]<br/>class = depressive disorder>, fillcolor="#eca36e"] ;
481 -> 487 ;
488 [label=<gini = 0.0<br/>samples = 16<br/>value = [9.656, 0.0]<br/>class = depressive disorder>, fillcolor="#e58139"] ;
487 -> 488 ;
489 [label=<age_Age 18 - 24 &le; 0.5<br/>gini = 0.414<br/>samples = 3<br/>value = [1.207, 2.915]<br/>class = no depressive disorder>, fillcolor="#8bc6f0"] ;
487 -> 489 ;
490 [label=<gini = 0.0<br/>samples = 2<br/>value = [1.207, 0.0]<br/>class = depressive disorder>, fillcolor="#e58139"] ;
489 -> 490 ;
491 [label=<gini = 0.0<br/>samples = 1<br/>value = [0.0, 2.915]<br/>class = no depressive disorder>, fillcolor="#399de5"] ;
489 -> 491 ;
492 [label=<gini = 0.0<br/>samples = 1<br/>value = [0.0, 2.915]<br/>class = no depressive disorder>, fillcolor="#399de5"] ;
480 -> 492 ;
493 [label=<Body_Mass_Yes &le; 0.5<br/>gini = 0.213<br/>samples = 5<br/>value = [1.207, 8.745]<br/>class = no depressive disorder>, fillcolor="#54abe9"] ;
471 -> 493 ;
494 [label=<gini = 0.0<br/>samples = 2<br/>value = [1.207, 0.0]<br/>class = depressive disorder>, fillcolor="#e58139"] ;
493 -> 494 ;
495 [label=<gini = 0.0<br/>samples = 3<br/>value = [0.0, 8.745]<br/>class = no depressive disorder>, fillcolor="#399de5"] ;
493 -> 495 ;
496 [label=<income_$35,000 to less than $50,000 &le; 0.5<br/>gini = 0.499<br/>samples = 115<br/>value = [56.731, 61.212]<br/>class = no depressive disorder>, fillcolor="#f1f8fd"] ;
470 -> 496 ;
497 [label=<Vegetable_intake_per_day_Consumed vegetables one or more times per day &le; 0.5<br/>gini = 0.494<br/>samples = 102<br/>value = [48.886, 61.212]<br/>class = no depressive disorder>, fillcolor="#d7ebfa"] ;
496 -> 497 ;
498 [label=<gini = 0.0<br/>samples = 9<br/>value = [5.432, 0.0]<br/>class = depressive disorder>, fillcolor="#e58139"] ;
497 -> 498 ;
499 [label=<still_have_asthma_No &le; 0.5<br/>gini = 0.486<br/>samples = 93<br/>value = [43.454, 61.212]<br/>class = no depressive disorder>, fillcolor="#c6e3f7"] ;
497 -> 499 ;
500 [label=<needed_medical_but_cost_Yes &le; 0.5<br/>gini = 0.476<br/>samples = 86<br/>value = [39.229, 61.212]<br/>class = no depressive disorder>, fillcolor="#b8dcf6"] ;
499 -> 500 ;
501 [label=<children_None &le; 0.5<br/>gini = 0.488<br/>samples = 82<br/>value = [38.626, 52.467]<br/>class = no depressive disorder>, fillcolor="#cbe5f8"] ;
500 -> 501 ;
502 [label=<type_of_physical_activity_Other______ &le; 0.5<br/>gini = 0.439<br/>samples = 22<br/>value = [12.071, 5.83]<br/>class = depressive disorder>, fillcolor="#f2be99"] ;
501 -> 502 ;
503 [label=<still_have_asthma_Yes &le; 0.5<br/>gini = 0.313<br/>samples = 21<br/>value = [12.071, 2.915]<br/>class = depressive disorder>, fillcolor="#eb9f69"] ;
502 -> 503 ;
504 [label=<gini = 0.0<br/>samples = 18<br/>value = [10.863, 0.0]<br/>class = depressive disorder>, fillcolor="#e58139"] ;
503 -> 504 ;
505 [label=<gini = 0.414<br/>samples = 3<br/>value = [1.207, 2.915]<br/>class = no depressive disorder>, fillcolor="#8bc6f0"] ;
503 -> 505 ;
506 [label=<gini = 0.0<br/>samples = 1<br/>value = [0.0, 2.915]<br/>class = no depressive disorder>, fillcolor="#399de5"] ;
502 -> 506 ;
507 [label=<last_check-up_Within past year (anytime less than 12 months ago) &le; 0.5<br/>gini = 0.462<br/>samples = 60<br/>value = [26.555, 46.638]<br/>class = no depressive disorder>, fillcolor="#aad5f4"] ;
501 -> 507 ;
508 [label=<own/rent_your_home_Own &le; 0.5<br/>gini = 0.213<br/>samples = 10<br/>value = [2.414, 17.489]<br/>class = no depressive disorder>, fillcolor="#54abe9"] ;
507 -> 508 ;
509 [label=<gini = 0.0<br/>samples = 2<br/>value = [1.207, 0.0]<br/>class = depressive disorder>, fillcolor="#e58139"] ;
508 -> 509 ;
510 [label=<gini = 0.121<br/>samples = 8<br/>value = [1.207, 17.489]<br/>class = no depressive disorder>, fillcolor="#47a4e7"] ;
508 -> 510 ;
511 [label=<type_of_physical_activity_Walking &le; 0.5<br/>gini = 0.496<br/>samples = 50<br/>value = [24.141, 29.149]<br/>class = no depressive disorder>, fillcolor="#ddeefb"] ;
507 -> 511 ;
512 [label=<gini = 0.473<br/>samples = 35<br/>value = [18.709, 11.659]<br/>class = depressive disorder>, fillcolor="#f5d0b4"] ;
511 -> 512 ;
513 [label=<gini = 0.362<br/>samples = 15<br/>value = [5.432, 17.489]<br/>class = no depressive disorder>, fillcolor="#76bbed"] ;
511 -> 513 ;
514 [label=<have_diabetes_No &le; 0.5<br/>gini = 0.121<br/>samples = 4<br/>value = [0.604, 8.745]<br/>class = no depressive disorder>, fillcolor="#47a4e7"] ;
500 -> 514 ;
515 [label=<gini = 0.0<br/>samples = 1<br/>value = [0.604, 0.0]<br/>class = depressive disorder>, fillcolor="#e58139"] ;
514 -> 515 ;
516 [label=<gini = 0.0<br/>samples = 3<br/>value = [0.0, 8.745]<br/>class = no depressive disorder>, fillcolor="#399de5"] ;
514 -> 516 ;
517 [label=<gini = 0.0<br/>samples = 7<br/>value = [4.225, 0.0]<br/>class = depressive disorder>, fillcolor="#e58139"] ;
499 -> 517 ;
518 [label=<gini = 0.0<br/>samples = 13<br/>value = [7.846, 0.0]<br/>class = depressive disorder>, fillcolor="#e58139"] ;
496 -> 518 ;
519 [label=<education_level_Attended College or Technical School &le; 0.5<br/>gini = 0.256<br/>samples = 13<br/>value = [3.621, 20.404]<br/>class = no depressive disorder>, fillcolor="#5caeea"] ;
469 -> 519 ;
520 [label=<had_a_stroke_No &le; 0.5<br/>gini = 0.189<br/>samples = 11<br/>value = [2.414, 20.404]<br/>class = no depressive disorder>, fillcolor="#50a9e8"] ;
519 -> 520 ;
521 [label=<gini = 0.0<br/>samples = 1<br/>value = [0.604, 0.0]<br/>class = depressive disorder>, fillcolor="#e58139"] ;
520 -> 521 ;
522 [label=<Fruit_intake_per_day_Consumed fruit less than one time per day &le; 0.5<br/>gini = 0.15<br/>samples = 10<br/>value = [1.811, 20.404]<br/>class = no depressive disorder>, fillcolor="#4ba6e7"] ;
520 -> 522 ;
523 [label=<type_of_physical_activity_Swimming &le; 0.5<br/>gini = 0.105<br/>samples = 9<br/>value = [1.207, 20.404]<br/>class = no depressive disorder>, fillcolor="#45a3e7"] ;
522 -> 523 ;
524 [label=<age_Age 35 - 44 &le; 0.5<br/>gini = 0.056<br/>samples = 8<br/>value = [0.604, 20.404]<br/>class = no depressive disorder>, fillcolor="#3fa0e6"] ;
523 -> 524 ;
525 [label=<gini = 0.0<br/>samples = 6<br/>value = [0.0, 17.489]<br/>class = no depressive disorder>, fillcolor="#399de5"] ;
524 -> 525 ;
526 [label=<thinking_physical_health-30d_None &le; 0.5<br/>gini = 0.284<br/>samples = 2<br/>value = [0.604, 2.915]<br/>class = no depressive disorder>, fillcolor="#62b1ea"] ;
524 -> 526 ;
527 [label=<gini = 0.0<br/>samples = 1<br/>value = [0.0, 2.915]<br/>class = no depressive disorder>, fillcolor="#399de5"] ;
526 -> 527 ;
528 [label=<gini = 0.0<br/>samples = 1<br/>value = [0.604, 0.0]<br/>class = depressive disorder>, fillcolor="#e58139"] ;
526 -> 528 ;
529 [label=<gini = 0.0<br/>samples = 1<br/>value = [0.604, 0.0]<br/>class = depressive disorder>, fillcolor="#e58139"] ;
523 -> 529 ;
530 [label=<gini = 0.0<br/>samples = 1<br/>value = [0.604, 0.0]<br/>class = depressive disorder>, fillcolor="#e58139"] ;
522 -> 530 ;
531 [label=<type_of_physical_activity_Weight lifting &le; 0.5<br/>gini = 0.0<br/>samples = 2<br/>value = [1.207, 0.0]<br/>class = depressive disorder>, fillcolor="#e58139"] ;
519 -> 531 ;
532 [label=<gini = 0.0<br/>samples = 1<br/>value = [0.604, 0.0]<br/>class = depressive disorder>, fillcolor="#e58139"] ;
531 -> 532 ;
533 [label=<gini = 0.0<br/>samples = 1<br/>value = [0.604, 0.0]<br/>class = depressive disorder>, fillcolor="#e58139"] ;
531 -> 533 ;
534 [label=<has_ever_smoked_Current smoker - now smokes every day &le; 0.5<br/>gini = 0.455<br/>samples = 160<br/>value = [86.908, 46.638]<br/>class = depressive disorder>, fillcolor="#f3c5a3"] ;
366 -> 534 ;
535 [label=<income_Less than $15,000 &le; 0.5<br/>gini = 0.399<br/>samples = 137<br/>value = [76.648, 29.149]<br/>class = depressive disorder>, fillcolor="#efb184"] ;
534 -> 535 ;
536 [label=<age_Age 35 - 44 &le; 0.5<br/>gini = 0.317<br/>samples = 124<br/>value = [71.216, 17.489]<br/>class = depressive disorder>, fillcolor="#eba06a"] ;
535 -> 536 ;
537 [label=<COPD, emphysema_or_chronic_bronchitis_Yes &le; 0.5<br/>gini = 0.093<br/>samples = 95<br/>value = [56.731, 2.915]<br/>class = depressive disorder>, fillcolor="#e68743"] ;
536 -> 537 ;
538 [label=<gini = -0.0<br/>samples = 93<br/>value = [56.128, 0.0]<br/>class = depressive disorder>, fillcolor="#e58139"] ;
537 -> 538 ;
539 [label=<Health_Care_Access_18-64_Have health care coverage &le; 0.5<br/>gini = 0.284<br/>samples = 2<br/>value = [0.604, 2.915]<br/>class = no depressive disorder>, fillcolor="#62b1ea"] ;
537 -> 539 ;
540 [label=<gini = 0.0<br/>samples = 1<br/>value = [0.604, 0.0]<br/>class = depressive disorder>, fillcolor="#e58139"] ;
539 -> 540 ;
541 [label=<gini = 0.0<br/>samples = 1<br/>value = [0.0, 2.915]<br/>class = no depressive disorder>, fillcolor="#399de5"] ;
539 -> 541 ;
542 [label=<type_of_physical_activity_Walking &le; 0.5<br/>gini = 0.5<br/>samples = 29<br/>value = [14.485, 14.574]<br/>class = no depressive disorder>, fillcolor="#fefeff"] ;
536 -> 542 ;
543 [label=<currently_employed_Employed for wages &le; 0.5<br/>gini = 0.439<br/>samples = 22<br/>value = [12.071, 5.83]<br/>class = depressive disorder>, fillcolor="#f2be99"] ;
542 -> 543 ;
544 [label=<blood_cholesterol_checked_within_5y_Had cholesterol checked in past 5 years &le; 0.5<br/>gini = 0.449<br/>samples = 7<br/>value = [3.018, 5.83]<br/>class = no depressive disorder>, fillcolor="#9fd0f2"] ;
543 -> 544 ;
545 [label=<gini = 0.0<br/>samples = 3<br/>value = [1.811, 0.0]<br/>class = depressive disorder>, fillcolor="#e58139"] ;
544 -> 545 ;
546 [label=<Body_Mass_Don't know/Refused/Missing &le; 0.5<br/>gini = 0.284<br/>samples = 4<br/>value = [1.207, 5.83]<br/>class = no depressive disorder>, fillcolor="#62b1ea"] ;
544 -> 546 ;
547 [label=<gini = 0.0<br/>samples = 2<br/>value = [0.0, 5.83]<br/>class = no depressive disorder>, fillcolor="#399de5"] ;
546 -> 547 ;
548 [label=<general_health_Excellent &le; 0.5<br/>gini = 0.0<br/>samples = 2<br/>value = [1.207, 0.0]<br/>class = depressive disorder>, fillcolor="#e58139"] ;
546 -> 548 ;
549 [label=<gini = 0.0<br/>samples = 1<br/>value = [0.604, 0.0]<br/>class = depressive disorder>, fillcolor="#e58139"] ;
548 -> 549 ;
550 [label=<gini = 0.0<br/>samples = 1<br/>value = [0.604, 0.0]<br/>class = depressive disorder>, fillcolor="#e58139"] ;
548 -> 550 ;
551 [label=<gini = 0.0<br/>samples = 15<br/>value = [9.053, 0.0]<br/>class = depressive disorder>, fillcolor="#e58139"] ;
543 -> 551 ;
552 [label=<do_they_Meet_Aerobic_Recommendations_Did Not Meet Aerobic Recommendations &le; 0.5<br/>gini = 0.339<br/>samples = 7<br/>value = [2.414, 8.745]<br/>class = no depressive disorder>, fillcolor="#70b8ec"] ;
542 -> 552 ;
553 [label=<is_a_heavy_drinker_No &le; 0.5<br/>gini = 0.121<br/>samples = 4<br/>value = [0.604, 8.745]<br/>class = no depressive disorder>, fillcolor="#47a4e7"] ;
552 -> 553 ;
554 [label=<gini = 0.0<br/>samples = 1<br/>value = [0.604, 0.0]<br/>class = depressive disorder>, fillcolor="#e58139"] ;
553 -> 554 ;
555 [label=<gini = 0.0<br/>samples = 3<br/>value = [0.0, 8.745]<br/>class = no depressive disorder>, fillcolor="#399de5"] ;
553 -> 555 ;
556 [label=<Body_Mass_No &le; 0.5<br/>gini = 0.0<br/>samples = 3<br/>value = [1.811, 0.0]<br/>class = depressive disorder>, fillcolor="#e58139"] ;
552 -> 556 ;
557 [label=<gini = 0.0<br/>samples = 1<br/>value = [0.604, 0.0]<br/>class = depressive disorder>, fillcolor="#e58139"] ;
556 -> 557 ;
558 [label=<gini = 0.0<br/>samples = 2<br/>value = [1.207, 0.0]<br/>class = depressive disorder>, fillcolor="#e58139"] ;
556 -> 558 ;
559 [label=<Fruit_intake_per_day_Consumed fruit one or more times per day &le; 0.5<br/>gini = 0.434<br/>samples = 13<br/>value = [5.432, 11.659]<br/>class = no depressive disorder>, fillcolor="#95cbf1"] ;
535 -> 559 ;
560 [label=<blood_cholesterol_checked_is_high_Missing &le; 0.5<br/>gini = 0.0<br/>samples = 7<br/>value = [4.225, 0.0]<br/>class = depressive disorder>, fillcolor="#e58139"] ;
559 -> 560 ;
561 [label=<gini = 0.0<br/>samples = 3<br/>value = [1.811, 0.0]<br/>class = depressive disorder>, fillcolor="#e58139"] ;
560 -> 561 ;
562 [label=<gini = 0.0<br/>samples = 4<br/>value = [2.414, 0.0]<br/>class = depressive disorder>, fillcolor="#e58139"] ;
560 -> 562 ;
563 [label=<have_diabetes_No &le; 0.5<br/>gini = 0.17<br/>samples = 6<br/>value = [1.207, 11.659]<br/>class = no depressive disorder>, fillcolor="#4da7e8"] ;
559 -> 563 ;
564 [label=<gini = 0.0<br/>samples = 1<br/>value = [0.604, 0.0]<br/>class = depressive disorder>, fillcolor="#e58139"] ;
563 -> 564 ;
565 [label=<general_health_Fair &le; 0.5<br/>gini = 0.094<br/>samples = 5<br/>value = [0.604, 11.659]<br/>class = no depressive disorder>, fillcolor="#43a2e6"] ;
563 -> 565 ;
566 [label=<gini = 0.0<br/>samples = 4<br/>value = [0.0, 11.659]<br/>class = no depressive disorder>, fillcolor="#399de5"] ;
565 -> 566 ;
567 [label=<gini = 0.0<br/>samples = 1<br/>value = [0.604, 0.0]<br/>class = depressive disorder>, fillcolor="#e58139"] ;
565 -> 567 ;
568 [label=<blood_cholesterol_checked_within_5y_Had cholesterol checked in past 5 years &le; 0.5<br/>gini = 0.466<br/>samples = 23<br/>value = [10.26, 17.489]<br/>class = no depressive disorder>, fillcolor="#add6f4"] ;
534 -> 568 ;
569 [label=<age_Age 45 - 54 &le; 0.5<br/>gini = 0.339<br/>samples = 14<br/>value = [4.828, 17.489]<br/>class = no depressive disorder>, fillcolor="#70b8ec"] ;
568 -> 569 ;
570 [label=<had_asthma_No &le; 0.5<br/>gini = 0.213<br/>samples = 10<br/>value = [2.414, 17.489]<br/>class = no depressive disorder>, fillcolor="#54abe9"] ;
569 -> 570 ;
571 [label=<gini = 0.0<br/>samples = 2<br/>value = [1.207, 0.0]<br/>class = depressive disorder>, fillcolor="#e58139"] ;
570 -> 571 ;
572 [label=<is_a_heavy_drinker_No &le; 0.5<br/>gini = 0.121<br/>samples = 8<br/>value = [1.207, 17.489]<br/>class = no depressive disorder>, fillcolor="#47a4e7"] ;
570 -> 572 ;
573 [label=<gini = 0.0<br/>samples = 1<br/>value = [0.604, 0.0]<br/>class = depressive disorder>, fillcolor="#e58139"] ;
572 -> 573 ;
574 [label=<currently_employed_A student &le; 0.5<br/>gini = 0.064<br/>samples = 7<br/>value = [0.604, 17.489]<br/>class = no depressive disorder>, fillcolor="#40a0e6"] ;
572 -> 574 ;
575 [label=<gini = 0.0<br/>samples = 6<br/>value = [0.0, 17.489]<br/>class = no depressive disorder>, fillcolor="#399de5"] ;
574 -> 575 ;
576 [label=<gini = 0.0<br/>samples = 1<br/>value = [0.604, 0.0]<br/>class = depressive disorder>, fillcolor="#e58139"] ;
574 -> 576 ;
577 [label=<is_a_heavy_drinker_No &le; 0.5<br/>gini = 0.0<br/>samples = 4<br/>value = [2.414, 0.0]<br/>class = depressive disorder>, fillcolor="#e58139"] ;
569 -> 577 ;
578 [label=<gini = 0.0<br/>samples = 1<br/>value = [0.604, 0.0]<br/>class = depressive disorder>, fillcolor="#e58139"] ;
577 -> 578 ;
579 [label=<gini = 0.0<br/>samples = 3<br/>value = [1.811, 0.0]<br/>class = depressive disorder>, fillcolor="#e58139"] ;
577 -> 579 ;
580 [label=<gini = 0.0<br/>samples = 9<br/>value = [5.432, 0.0]<br/>class = depressive disorder>, fillcolor="#e58139"] ;
568 -> 580 ;
581 [label=<income_Don't know/Not sure/Missing &le; 0.5<br/>gini = 0.406<br/>samples = 389<br/>value = [153.899, 390.59]<br/>class = no depressive disorder>, fillcolor="#87c4ef"] ;
365 -> 581 ;
582 [label=<blood_cholesterol_checked_within_5y_Did not have cholesterol checked in past 5 years &le; 0.5<br/>gini = 0.381<br/>samples = 333<br/>value = [125.533, 364.357]<br/>class = no depressive disorder>, fillcolor="#7dbfee"] ;
581 -> 582 ;
583 [label=<type_of_physical_activity_Bicycling &le; 0.5<br/>gini = 0.375<br/>samples = 326<br/>value = [121.309, 364.357]<br/>class = no depressive disorder>, fillcolor="#7bbeee"] ;
582 -> 583 ;
584 [label=<have_diabetes_No, pre-diabetes or borderline diabetes &le; 0.5<br/>gini = 0.369<br/>samples = 320<br/>value = [117.688, 364.357]<br/>class = no depressive disorder>, fillcolor="#79bded"] ;
583 -> 584 ;
585 [label=<had_skin_cancer_Yes &le; 0.5<br/>gini = 0.361<br/>samples = 309<br/>value = [111.652, 361.442]<br/>class = no depressive disorder>, fillcolor="#76bbed"] ;
584 -> 585 ;
586 [label=<Fruit_intake_per_day_Don´t know, refused or missing values &le; 0.5<br/>gini = 0.338<br/>samples = 265<br/>value = [91.132, 332.293]<br/>class = no depressive disorder>, fillcolor="#6fb8ec"] ;
585 -> 586 ;
587 [label=<type_of_physical_activity_Snow shoveling by hand &le; 0.5<br/>gini = 0.327<br/>samples = 252<br/>value = [84.494, 326.464]<br/>class = no depressive disorder>, fillcolor="#6cb6ec"] ;
586 -> 587 ;
588 [label=<type_of_physical_activity_Calisthenics &le; 0.5<br/>gini = 0.322<br/>samples = 249<br/>value = [82.683, 326.464]<br/>class = no depressive disorder>, fillcolor="#6bb6ec"] ;
587 -> 588 ;
589 [label=<currently_employed_A homemaker &le; 0.5<br/>gini = 0.318<br/>samples = 246<br/>value = [80.872, 326.464]<br/>class = no depressive disorder>, fillcolor="#6ab5eb"] ;
588 -> 589 ;
590 [label=<type_of_physical_activity_Household Activities (vacuuming, dusting, home repair, etc.) &le; 0.5<br/>gini = 0.304<br/>samples = 228<br/>value = [72.423, 314.804]<br/>class = no depressive disorder>, fillcolor="#67b4eb"] ;
589 -> 590 ;
591 [label=<have_diabetes_Yes, but female told only during pregnancy &le; 0.5<br/>gini = 0.301<br/>samples = 226<br/>value = [71.216, 314.804]<br/>class = no depressive disorder>, fillcolor="#66b3eb"] ;
590 -> 591 ;
592 [label=<gini = 0.298<br/>samples = 224<br/>value = [70.009, 314.804]<br/>class = no depressive disorder>, fillcolor="#65b3eb"] ;
591 -> 592 ;
593 [label=<gini = 0.0<br/>samples = 2<br/>value = [1.207, 0.0]<br/>class = depressive disorder>, fillcolor="#e58139"] ;
591 -> 593 ;
594 [label=<gini = 0.0<br/>samples = 2<br/>value = [1.207, 0.0]<br/>class = depressive disorder>, fillcolor="#e58139"] ;
590 -> 594 ;
595 [label=<MARITAL_Married &le; 0.5<br/>gini = 0.487<br/>samples = 18<br/>value = [8.449, 11.659]<br/>class = no depressive disorder>, fillcolor="#c8e4f8"] ;
589 -> 595 ;
596 [label=<gini = 0.0<br/>samples = 7<br/>value = [4.225, 0.0]<br/>class = depressive disorder>, fillcolor="#e58139"] ;
595 -> 596 ;
597 [label=<general_health_Good &le; 0.5<br/>gini = 0.39<br/>samples = 11<br/>value = [4.225, 11.659]<br/>class = no depressive disorder>, fillcolor="#81c1ee"] ;
595 -> 597 ;
598 [label=<gini = 0.284<br/>samples = 8<br/>value = [2.414, 11.659]<br/>class = no depressive disorder>, fillcolor="#62b1ea"] ;
597 -> 598 ;
599 [label=<gini = 0.0<br/>samples = 3<br/>value = [1.811, 0.0]<br/>class = depressive disorder>, fillcolor="#e58139"] ;
597 -> 599 ;
600 [label=<gini = 0.0<br/>samples = 3<br/>value = [1.811, 0.0]<br/>class = depressive disorder>, fillcolor="#e58139"] ;
588 -> 600 ;
